{"learner":{"attributes":{"scikit_learn":"{\"_estimator_type\": \"regressor\"}"},"feature_names":["avg_temp_c","max_temp_c","min_temp_c","total_precip_mm","max_daily_precip_mm","days_over_35c","heavy_rain_days","avg_max_windspeed","gdp_current_usd","population"],"feature_types":["float","float","float","float","float","float","float","float","float","int"],"gradient_booster":{"model":{"gbtree_model_param":{"num_parallel_tree":"1","num_trees":"200"},"iteration_indptr":[0,1,2,3,4,5,6,7,8,9,10,11,12,13,14,15,16,17,18,19,20,21,22,23,24,25,26,27,28,29,30,31,32,33,34,35,36,37,38,39,40,41,42,43,44,45,46,47,48,49,50,51,52,53,54,55,56,57,58,59,60,61,62,63,64,65,66,67,68,69,70,71,72,73,74,75,76,77,78,79,80,81,82,83,84,85,86,87,88,89,90,91,92,93,94,95,96,97,98,99,100,101,102,103,104,105,106,107,108,109,110,111,112,113,114,115,116,117,118,119,120,121,122,123,124,125,126,127,128,129,130,131,132,133,134,135,136,137,138,139,140,141,142,143,144,145,146,147,148,149,150,151,152,153,154,155,156,157,158,159,160,161,162,163,164,165,166,167,168,169,170,171,172,173,174,175,176,177,178,179,180,181,182,183,184,185,186,187,188,189,190,191,192,193,194,195,196,197,198,199,200],"tree_info":[0,0,0,0,0,0,0,0,0,0,0,0,0,0,0,0,0,0,0,0,0,0,0,0,0,0,0,0,0,0,0,0,0,0,0,0,0,0,0,0,0,0,0,0,0,0,0,0,0,0,0,0,0,0,0,0,0,0,0,0,0,0,0,0,0,0,0,0,0,0,0,0,0,0,0,0,0,0,0,0,0,0,0,0,0,0,0,0,0,0,0,0,0,0,0,0,0,0,0,0,0,0,0,0,0,0,0,0,0,0,0,0,0,0,0,0,0,0,0,0,0,0,0,0,0,0,0,0,0,0,0,0,0,0,0,0,0,0,0,0,0,0,0,0,0,0,0,0,0,0,0,0,0,0,0,0,0,0,0,0,0,0,0,0,0,0,0,0,0,0,0,0,0,0,0,0,0,0,0,0,0,0,0,0,0,0,0,0,0,0,0,0,0,0,0,0,0,0,0,0],"trees":[{"base_weights":[-1.5794498E-1,-5.7726026E0,2.7910664E0,-1.1415315E1,-3.076538E0,-5.9398274E0,4.390046E0,-4.0291905E0,-7.54126E-1,-1.1529756E1,-1.4384048E0,2.4237323E-1,-9.566309E0,2.6534822E0,3.9703175E-1,-4.7052222E-1,1.8523374E-1,2.471738E-2,-6.8080825E-1,-2.7742013E-1,7.416317E-2,1.5209323E-1,-2.7187005E-1,-1.3966103E-1,-7.0025986E-1,5.4824736E-2,2.546259E-1],"categories":[],"categories_nodes":[],"categories_segments":[],"categories_sizes":[],"default_left":[0,0,0,0,0,0,0,0,0,0,0,0,0,0,0,0,0,0,0,0,0,0,0,0,0,0,0],"id":0,"left_children":[1,3,5,7,9,11,13,15,-1,17,19,21,23,25,-1,-1,-1,-1,-1,-1,-1,-1,-1,-1,-1,-1,-1],"loss_changes":[3.029611E3,9.2330664E2,1.7013387E3,4.8095874E2,5.9270544E2,4.282918E2,6.078436E2,3.678058E2,0E0,1.8234149E2,4.6453564E2,1.4374367E2,3.2166016E2,2.602445E2,0E0,0E0,0E0,0E0,0E0,0E0,0E0,0E0,0E0,0E0,0E0,0E0,0E0],"parents":[2147483647,0,0,1,1,2,2,3,3,4,4,5,5,6,6,7,7,9,9,10,10,11,11,12,12,13,13],"right_children":[2,4,6,8,10,12,14,16,-1,18,20,22,24,26,-1,-1,-1,-1,-1,-1,-1,-1,-1,-1,-1,-1,-1],"split_conditions":[9.3187736E11,3.37E1,1.1703006E1,1.835178E1,7.23E1,6.567E2,5.1542937E12,-2.4E0,-7.54126E-1,3.8E0,3.58E1,1.1073699E1,2.0267124E1,1.8747396E1,3.9703175E-1,-4.7052222E-1,1.8523374E-1,2.471738E-2,-6.8080825E-1,-2.7742013E-1,7.416317E-2,1.5209323E-1,-2.7187005E-1,-1.3966103E-1,-7.0025986E-1,5.4824736E-2,2.546259E-1],"split_indices":[8,1,0,0,3,3,8,2,0,2,1,0,7,7,0,0,0,0,0,0,0,0,0,0,0,0,0],"split_type":[0,0,0,0,0,0,0,0,0,0,0,0,0,0,0,0,0,0,0,0,0,0,0,0,0,0,0],"sum_hessian":[1.81E2,6.2E1,1.19E2,1.9E1,4.3E1,1.8E1,1.01E2,7E0,1.2E1,6E0,3.7E1,7E0,1.1E1,6.9E1,3.2E1,4E0,3E0,1E0,5E0,1.5E1,2.2E1,5E0,2E0,5E0,6E0,4.3E1,2.6E1],"tree_param":{"num_deleted":"0","num_feature":"10","num_nodes":"27","size_leaf_vector":"1"}},{"base_weights":[2.0647289E-1,-6.0294037E0,2.9360065E0,-8.215087E0,1.7389196E0,7.579984E-1,3.839803E-1,1.2344173E-1,-8.744791E0,-4.1033903E-1,1.5676323E-1,-3.3915286E0,2.45548E0,-6.1413515E-1,-3.283206E-1,9.567634E-2,-3.744958E-1,-4.0985557E-1,1.3684095E-1],"categories":[],"categories_nodes":[],"categories_segments":[],"categories_sizes":[],"default_left":[0,0,0,0,0,0,0,0,0,0,0,0,0,0,0,0,0,0,0],"id":1,"left_children":[1,3,5,7,9,11,-1,-1,13,-1,-1,15,17,-1,-1,-1,-1,-1,-1],"loss_changes":[3.353825E3,1.0330312E3,1.4096078E3,2.875769E2,2.2015718E2,6.774837E2,0E0,0E0,2.661577E2,0E0,0E0,6.231129E2,2.2622922E2,0E0,0E0,0E0,0E0,0E0,0E0],"parents":[2147483647,0,0,1,1,2,2,3,3,4,4,5,5,8,8,11,11,12,12],"right_children":[2,4,6,8,10,12,-1,-1,14,-1,-1,16,18,-1,-1,-1,-1,-1,-1],"split_conditions":[1.0590548E12,2.713907E1,5.1103573E12,1.0750089E11,3.4E1,1.2495891E1,3.839803E-1,1.2344173E-1,3.33E1,-4.1033903E-1,1.5676323E-1,3.03E1,3.583E2,-6.1413515E-1,-3.283206E-1,9.567634E-2,-3.744958E-1,-4.0985557E-1,1.3684095E-1],"split_indices":[8,0,8,8,4,0,0,0,1,0,0,4,3,0,0,0,0,0,0],"split_type":[0,0,0,0,0,0,0,0,0,0,0,0,0,0,0,0,0,0,0],"sum_hessian":[1.95E2,5.9E1,1.36E2,4.6E1,1.3E1,9.4E1,4.2E1,2E0,4.4E1,1E0,1.2E1,2.7E1,6.7E1,1.5E1,2.9E1,1.2E1,1.5E1,1E0,6.6E1],"tree_param":{"num_deleted":"0","num_feature":"10","num_nodes":"19","size_leaf_vector":"1"}},{"base_weights":[5.2924503E-2,-6.1404424E0,2.8418996E0,-9.324344E0,-3.6186618E-1,-3.35688E0,4.408806E0,-1.309309E1,-2.6727269E0,-8.043129E0,3.0213027E0,3.0106633E0,-6.196407E0,1.5669307E0,6.5140967E0,-6.93546E-1,1.1992552E-1,-3.3167653E-2,-5.2445525E-1,9.486879E-2,-6.199403E-1,3.6413256E-2,1.6484304E-1,1.6807865E-1,5.0847055E-3,-4.1414896E-1,1.8494914E-1,1.3246676E-1,-2.4210425E-1,2.287652E-1,3.6504844E-1],"categories":[],"categories_nodes":[],"categories_segments":[],"categories_sizes":[],"default_left":[0,0,0,0,0,0,0,0,0,0,0,0,0,0,0,0,0,0,0,0,0,0,0,0,0,0,0,0,0,0,0],"id":2,"left_children":[1,3,5,7,9,11,13,15,17,19,21,23,25,27,29,-1,-1,-1,-1,-1,-1,-1,-1,-1,-1,-1,-1,-1,-1,-1,-1],"loss_changes":[3.2820754E3,1.0821321E3,1.2871904E3,9.1759937E2,5.960149E2,5.0683716E2,6.18005E2,3.224663E2,2.2863239E2,3.2660858E2,7.708832E0,8.845207E0,4.2293994E2,3.3193707E2,5.8130615E1,0E0,0E0,0E0,0E0,0E0,0E0,0E0,0E0,0E0,0E0,0E0,0E0,0E0,0E0,0E0,0E0],"parents":[2147483647,0,0,1,1,2,2,3,3,4,4,5,5,6,6,7,7,8,8,9,9,10,10,11,11,12,12,13,13,14,14],"right_children":[2,4,6,8,10,12,14,16,18,20,22,24,26,28,30,-1,-1,-1,-1,-1,-1,-1,-1,-1,-1,-1,-1,-1,-1,-1,-1],"split_conditions":[9.3187736E11,3.58E1,1.2495891E1,1.6878904E1,3.4E1,2.62E1,2.1792078E12,7E0,3E0,2.3002739E1,4.48E1,1.144E1,7.58E1,2.8E1,5.1542937E12,-6.93546E-1,1.1992552E-1,-3.3167653E-2,-5.2445525E-1,9.486879E-2,-6.199403E-1,3.6413256E-2,1.6484304E-1,1.6807865E-1,5.0847055E-3,-4.1414896E-1,1.8494914E-1,1.3246676E-1,-2.4210425E-1,2.287652E-1,3.6504844E-1],"split_indices":[8,1,0,7,4,4,8,6,6,0,4,0,4,5,8,0,0,0,0,0,0,0,0,0,0,0,0,0,0,0,0],"split_type":[0,0,0,0,0,0,0,0,0,0,0,0,0,0,0,0,0,0,0,0,0,0,0,0,0,0,0,0,0,0,0],"sum_hessian":[1.88E2,5.8E1,1.3E2,3.7E1,2.1E1,2.6E1,1.04E2,2.3E1,1.4E1,6E0,1.5E1,8E0,1.8E1,4.5E1,5.9E1,2.2E1,1E0,1.2E1,2E0,2E0,4E0,2E0,1.3E1,7E0,1E0,1.5E1,3E0,3.9E1,6E0,1.9E1,4E1],"tree_param":{"num_deleted":"0","num_feature":"10","num_nodes":"31","size_leaf_vector":"1"}},{"base_weights":[-4.105593E-1,-2.462929E0,6.4243116E0,-6.446199E-1,-1.7493873E0,3.298485E-1,9.61607E-2,-9.401913E0,-1.12816E0,1.4244522E-1,-6.4103645E-1,-2.5358078E-1,-2.60727E-3],"categories":[],"categories_nodes":[],"categories_segments":[],"categories_sizes":[],"default_left":[0,0,0,0,0,0,0,0,0,0,0,0,0],"id":3,"left_children":[1,3,5,-1,7,-1,-1,9,11,-1,-1,-1,-1],"loss_changes":[2.6109438E3,1.0416326E3,2.0730225E1,0E0,6.3117737E2,0E0,0E0,4.5535803E2,5.3438074E2,0E0,0E0,0E0,0E0],"parents":[2147483647,0,0,1,1,2,2,4,4,7,7,8,8],"right_children":[2,4,6,-1,8,-1,-1,10,12,-1,-1,-1,-1],"split_conditions":[2.8572125E8,2.4190908E7,1.4380696E9,-6.446199E-1,2.5226188E11,3.298485E-1,9.61607E-2,1.8567213E1,1.2495891E1,1.4244522E-1,-6.4103645E-1,-2.5358078E-1,-2.60727E-3],"split_indices":[9,9,9,0,8,0,0,0,0,0,0,0,0],"split_type":[0,0,0,0,0,0,0,0,0,0,0,0,0],"sum_hessian":[1.84E2,1.42E2,4.2E1,8E0,1.34E2,4E1,2E0,9E0,1.25E2,2E0,7E0,2.6E1,9.9E1],"tree_param":{"num_deleted":"0","num_feature":"10","num_nodes":"13","size_leaf_vector":"1"}},{"base_weights":[-2.1347609E-1,-5.073892E0,2.4498744E0,-7.9906855E0,-7.7518713E-1,-4.6095376E0,3.6691241E0,-1.0756824E1,-3.8585746E0,-9.605142E0,1.4646009E0,-5.7205355E-1,-2.613558E0,1.7877047E0,3.350018E-1,-5.713989E-1,1.1699257E-1,-1.7299566E-2,-4.1030273E-1,3.0000925E-2,-5.883089E-1,-2.461236E-1,1.1344963E-1,1.0249334E-1,-3.7666082E-1,1.3278584E-1,-7.281594E-2],"categories":[],"categories_nodes":[],"categories_segments":[],"categories_sizes":[],"default_left":[0,0,0,0,0,0,0,0,0,0,0,0,0,0,0,0,0,0,0,0,0,0,0,0,0,0,0],"id":4,"left_children":[1,3,5,7,9,11,13,15,17,19,21,-1,23,25,-1,-1,-1,-1,-1,-1,-1,-1,-1,-1,-1,-1,-1],"loss_changes":[2.5237585E3,8.5895776E2,1.1014182E3,4.2712378E2,5.876073E2,2.2917447E2,6.038832E2,2.3769678E2,2.7203674E2,1.393822E2,1.3447408E2,0E0,3.825214E2,1.9534546E2,0E0,0E0,0E0,0E0,0E0,0E0,0E0,0E0,0E0,0E0,0E0,0E0,0E0],"parents":[2147483647,0,0,1,1,2,2,3,3,4,4,5,5,6,6,7,7,8,8,9,9,10,10,12,12,13,13],"right_children":[2,4,6,8,10,12,14,16,18,20,22,-1,24,26,-1,-1,-1,-1,-1,-1,-1,-1,-1,-1,-1,-1,-1],"split_conditions":[1.0590548E12,3.58E1,1.1746721E1,1.6511782E1,7.23E1,1.679863E1,4.447976E12,7E0,4.3741535E11,2.3002739E1,1.3616713E1,-5.7205355E-1,2.0267124E1,2.8E1,3.350018E-1,-5.713989E-1,1.1699257E-1,-1.7299566E-2,-4.1030273E-1,3.0000925E-2,-5.883089E-1,-2.461236E-1,1.1344963E-1,1.0249334E-1,-3.7666082E-1,1.3278584E-1,-7.281594E-2],"split_indices":[8,1,0,7,3,7,8,6,8,0,7,0,7,5,0,0,0,0,0,0,0,0,0,0,0,0,0],"split_type":[0,0,0,0,0,0,0,0,0,0,0,0,0,0,0,0,0,0,0,0,0,0,0,0,0,0,0],"sum_hessian":[1.93E2,6.8E1,1.25E2,4E1,2.8E1,1.8E1,1.07E2,2.3E1,1.7E1,5E0,2.3E1,3E0,1.5E1,6.7E1,4E1,2.2E1,1E0,1E1,7E0,1E0,4E0,2E0,2.1E1,8E0,7E0,5.3E1,1.4E1],"tree_param":{"num_deleted":"0","num_feature":"10","num_nodes":"27","size_leaf_vector":"1"}},{"base_weights":[-1.0787245E-1,-2.5217812E0,5.8871403E0,-1.5982199E0,-9.810384E0,3.098868E-1,1.08117595E-1,-5.2005014E0,-4.5408916E-1,-6.233491E-1,-1.4724731E0,-4.8999783E-1,-1.2718102E-1,-2.4975021E-1,5.3280186E-2,-4.0533838E-1,1.10639624E-1],"categories":[],"categories_nodes":[],"categories_segments":[],"categories_sizes":[],"default_left":[0,0,0,0,0,0,0,0,0,0,0,0,0,0,0,0,0],"id":5,"left_children":[1,3,5,7,9,-1,-1,11,13,-1,15,-1,-1,-1,-1,-1,-1],"loss_changes":[2.9236006E3,9.536527E2,5.369873E1,5.293096E2,3.360503E2,0E0,0E0,3.53899E2,6.885015E2,0E0,1.4018428E2,0E0,0E0,0E0,0E0,0E0,0E0],"parents":[2147483647,0,0,1,1,2,2,3,3,4,4,7,7,8,8,10,10],"right_children":[2,4,6,8,10,-1,-1,12,14,-1,16,-1,-1,-1,-1,-1,-1],"split_conditions":[2.8348794E8,2.11E1,1.4380696E9,4.3705562E11,2E0,3.098868E-1,1.08117595E-1,2.92E1,1.2495891E1,-6.233491E-1,2.14E1,-4.8999783E-1,-1.2718102E-1,-2.4975021E-1,5.3280186E-2,-4.0533838E-1,1.10639624E-1],"split_indices":[9,2,9,8,5,0,0,4,0,0,2,0,0,0,0,0,0],"split_type":[0,0,0,0,0,0,0,0,0,0,0,0,0,0,0,0,0],"sum_hessian":[2E2,1.43E2,5.7E1,1.28E2,1.5E1,5.2E1,5E0,3E1,9.8E1,1.1E1,4E0,1E1,2E1,2.4E1,7.4E1,1E0,3E0],"tree_param":{"num_deleted":"0","num_feature":"10","num_nodes":"17","size_leaf_vector":"1"}},{"base_weights":[-2.2443736E-1,-2.1784222E0,5.56668E0,-4.6923304E0,2.0559691E-1,2.9471686E-1,1.03612676E-1,-2.2271538E0,-8.992379E0,-8.289817E0,1.1337848E0,-2.536501E-3,-2.9863104E-1,-5.2430344E-1,1.1089289E-1,-5.660836E-1,-1.2137719E-1,-2.219514E-1,9.43981E-2],"categories":[],"categories_nodes":[],"categories_segments":[],"categories_sizes":[],"default_left":[0,0,0,0,0,0,0,0,0,0,0,0,0,0,0,0,0,0,0],"id":6,"left_children":[1,3,5,7,9,-1,-1,11,13,15,17,-1,-1,-1,-1,-1,-1,-1,-1],"loss_changes":[2.3318564E3,9.239182E2,4.7324097E1,7.750012E2,6.4022614E2,0E0,0E0,3.9913144E2,4.7536133E2,1.1470465E2,3.151916E2,0E0,0E0,0E0,0E0,0E0,0E0,0E0,0E0],"parents":[2147483647,0,0,1,1,2,2,3,3,4,4,7,7,8,8,9,9,10,10],"right_children":[2,4,6,8,10,-1,-1,12,14,16,18,-1,-1,-1,-1,-1,-1,-1,-1],"split_conditions":[2.8572125E8,3.54E1,1.4254232E9,7.9E0,3.583E2,2.9471686E-1,1.03612676E-1,2.0578142E1,2.3267947E8,1.7950686E1,1.3890959E1,-2.536501E-3,-2.9863104E-1,-5.2430344E-1,1.1089289E-1,-5.660836E-1,-1.2137719E-1,-2.219514E-1,9.43981E-2],"split_indices":[9,1,9,2,3,0,0,7,9,7,7,0,0,0,0,0,0,0,0],"split_type":[0,0,0,0,0,0,0,0,0,0,0,0,0,0,0,0,0,0,0],"sum_hessian":[2.04E2,1.53E2,5.1E1,7.4E1,7.9E1,4.6E1,5E0,4.8E1,2.6E1,7E0,7.2E1,3.1E1,1.7E1,2.3E1,3E0,4E0,3E0,8E0,6.4E1],"tree_param":{"num_deleted":"0","num_feature":"10","num_nodes":"19","size_leaf_vector":"1"}},{"base_weights":[-1.0041544E-3,-1.563225E0,2.8953344E-1,-4.248745E0,2.3438326E-1,-8.922567E0,-2.2401645E0,-3.3600101E0,1.7791314E0,-2.036115E-1,-5.504192E-1,-5.538004E-1,-4.1168194E-2,7.7289395E-2,-4.5697266E-1,1.3257591E-1,-6.527961E-2],"categories":[],"categories_nodes":[],"categories_segments":[],"categories_sizes":[],"default_left":[0,0,0,0,0,0,0,0,0,0,0,0,0,0,0,0,0],"id":7,"left_children":[1,3,-1,5,7,9,11,13,15,-1,-1,-1,-1,-1,-1,-1,-1],"loss_changes":[1.7462434E3,7.3477783E2,0E0,5.526648E2,5.1680164E2,1.3727576E2,5.417002E2,8.080054E2,1.783815E2,0E0,0E0,0E0,0E0,0E0,0E0,0E0,0E0],"parents":[2147483647,0,0,1,1,3,3,4,4,5,5,6,6,7,7,8,8],"right_children":[2,4,-1,6,8,10,12,14,16,-1,-1,-1,-1,-1,-1,-1,-1],"split_conditions":[4.685593E12,9.3187736E11,2.8953344E-1,3.33E1,1.2495891E1,1.5903835E1,7.23E1,7.55E2,2.8E1,-2.036115E-1,-5.504192E-1,-5.538004E-1,-4.1168194E-2,7.7289395E-2,-4.5697266E-1,1.3257591E-1,-6.527961E-2],"split_indices":[8,8,0,1,0,0,3,3,5,0,0,0,0,0,0,0,0],"split_type":[0,0,0,0,0,0,0,0,0,0,0,0,0,0,0,0,0],"sum_hessian":[1.91E2,1.51E2,4E1,6E1,9.1E1,1.7E1,4.3E1,2.7E1,6.4E1,6E0,1.1E1,5E0,3.8E1,1.5E1,1.2E1,5E1,1.4E1],"tree_param":{"num_deleted":"0","num_feature":"10","num_nodes":"17","size_leaf_vector":"1"}},{"base_weights":[1.9686969E-1,-4.296916E0,2.222661E0,-7.2357144E0,-1.7557468E-1,4.068202E-1,5.228821E0,1.708509E-1,-7.984881E0,-8.539786E0,2.222561E0,-2.5427637E0,1.8486013E0,2.685701E-1,1.1231428E-1,-4.9970895E-1,-1.8178803E-1,5.8380295E-2,-5.3573936E-1,-2.2791712E-1,1.5881264E-1,4.46898E-2,-3.288389E-1,2.1488789E-1,3.2707271E-3],"categories":[],"categories_nodes":[],"categories_segments":[],"categories_sizes":[],"default_left":[0,0,0,0,0,0,0,0,0,0,0,0,0,0,0,0,0,0,0,0,0,0,0,0,0],"id":8,"left_children":[1,3,5,7,9,11,13,-1,15,17,19,21,23,-1,-1,-1,-1,-1,-1,-1,-1,-1,-1,-1,-1],"loss_changes":[1.7574171E3,7.2543713E2,7.23881E2,3.0660803E2,5.405015E2,3.6192352E2,9.1970215E0,0E0,2.520398E2,1.3919214E2,1.502832E2,3.9404602E2,2.4865517E2,0E0,0E0,0E0,0E0,0E0,0E0,0E0,0E0,0E0,0E0,0E0,0E0],"parents":[2147483647,0,0,1,1,2,2,3,3,4,4,5,5,6,6,8,8,9,9,10,10,11,11,12,12],"right_children":[2,4,6,8,10,12,14,-1,16,18,20,22,24,-1,-1,-1,-1,-1,-1,-1,-1,-1,-1,-1,-1],"split_conditions":[1.0590548E12,3.58E1,2.8348794E8,1.3303561E1,3.4E1,1.2495891E1,1.4380696E9,1.708509E-1,8.234867E7,2.3002739E1,1.3616713E1,2.0267124E1,1.58912325E1,2.685701E-1,1.1231428E-1,-4.9970895E-1,-1.8178803E-1,5.8380295E-2,-5.3573936E-1,-2.2791712E-1,1.5881264E-1,4.46898E-2,-3.288389E-1,2.1488789E-1,3.2707271E-3],"split_indices":[8,1,9,7,4,0,9,0,9,0,7,7,0,0,0,0,0,0,0,0,0,0,0,0,0],"split_type":[0,0,0,0,0,0,0,0,0,0,0,0,0,0,0,0,0,0,0,0,0,0,0,0,0],"sum_hessian":[1.91E2,5.9E1,1.32E2,3.4E1,2.5E1,8.3E1,4.9E1,2E0,3.2E1,5E0,2E1,2.7E1,5.6E1,4.6E1,3E0,2.1E1,1.1E1,1E0,4E0,2E0,1.8E1,1.5E1,1.2E1,2.3E1,3.3E1],"tree_param":{"num_deleted":"0","num_feature":"10","num_nodes":"25","size_leaf_vector":"1"}},{"base_weights":[-5.682079E-1,-5.112377E0,1.6393301E0,-7.106432E0,-1.7173938E0,-1.6574973E0,3.669804E0,-9.036304E0,-1.8503708E0,2.9183257E0,-6.221006E0,1.9776843E-1,-2.9544296E0,-2.8114963E-1,4.5585423E0,-2.4090092E-1,-5.673239E-1,2.4814974E-1,-2.938714E-1,4.0888406E-2,1.6129515E-1,-4.3755364E-1,8.297064E-2,-4.578209E-3,-2.6577124E-1,3.675281E-2,-3.8810593E-1,1.337417E-1,2.3843122E-1],"categories":[],"categories_nodes":[],"categories_segments":[],"categories_sizes":[],"default_left":[0,0,0,0,0,0,0,0,0,0,0,0,0,0,0,0,0,0,0,0,0,0,0,0,0,0,0,0,0],"id":9,"left_children":[1,3,5,7,9,11,13,15,17,19,21,-1,23,25,27,-1,-1,-1,-1,-1,-1,-1,-1,-1,-1,-1,-1,-1,-1],"loss_changes":[1.964509E3,4.210614E2,8.8970685E2,3.8902063E2,5.4009204E2,3.829408E2,2.892135E2,2.2793677E2,3.584234E2,5.761055E0,2.7371545E2,0E0,2.8340015E2,1.2734085E2,1.3758789E1,0E0,0E0,0E0,0E0,0E0,0E0,0E0,0E0,0E0,0E0,0E0,0E0,0E0,0E0],"parents":[2147483647,0,0,1,1,2,2,3,3,4,4,5,5,6,6,7,7,8,8,9,9,10,10,12,12,13,13,14,14],"right_children":[2,4,6,8,10,12,14,16,18,20,22,-1,24,26,28,-1,-1,-1,-1,-1,-1,-1,-1,-1,-1,-1,-1,-1,-1],"split_conditions":[1.0590548E12,3.58E1,8.351659E7,1.7384699E1,3.3E1,2.601872E7,1.5972932E12,3.1867883E11,1.8104109E1,1.4454795E1,3E0,1.9776843E-1,7.55E2,1.4E1,3.32E1,-2.4090092E-1,-5.673239E-1,2.4814974E-1,-2.938714E-1,4.0888406E-2,1.6129515E-1,-4.3755364E-1,8.297064E-2,-4.578209E-3,-2.6577124E-1,3.675281E-2,-3.8810593E-1,1.337417E-1,2.3843122E-1],"split_indices":[8,1,9,7,5,9,8,8,7,7,6,0,3,5,1,0,0,0,0,0,0,0,0,0,0,0,0,0,0],"split_type":[0,0,0,0,0,0,0,0,0,0,0,0,0,0,0,0,0,0,0,0,0,0,0,0,0,0,0,0,0],"sum_hessian":[1.94E2,6.3E1,1.31E2,3.9E1,2.4E1,5E1,8.1E1,2.8E1,1.1E1,1.2E1,1.2E1,9E0,4.1E1,1.5E1,6.6E1,1.1E1,1.7E1,4E0,7E0,2E0,1E1,9E0,3E0,1.9E1,2.2E1,1.4E1,1E0,8E0,5.8E1],"tree_param":{"num_deleted":"0","num_feature":"10","num_nodes":"29","size_leaf_vector":"1"}},{"base_weights":[-1.583163E-1,-2.0967696E0,4.741606E0,-4.4098525E0,2.7756134E-1,2.462435E-1,9.253458E-2,-8.828979E0,-3.1147513E0,-2.220577E0,2.3315864E0,-4.9059683E-1,1.478848E-1,-4.3735605E-1,-6.466209E-2,-2.7021977E-1,7.500025E-2,1.5416236E-1,-2.6020867E-1],"categories":[],"categories_nodes":[],"categories_segments":[],"categories_sizes":[],"default_left":[0,0,0,0,0,0,0,0,0,0,0,0,0,0,0,0,0,0,0],"id":10,"left_children":[1,3,5,7,9,-1,-1,11,13,15,17,-1,-1,-1,-1,-1,-1,-1,-1],"loss_changes":[1.9095963E3,7.920755E2,2.1083984E1,3.902948E2,3.7462668E2,0E0,0E0,2.1439355E2,5.837338E2,3.9901337E2,2.4261917E2,0E0,0E0,0E0,0E0,0E0,0E0,0E0,0E0],"parents":[2147483647,0,0,1,1,2,2,3,3,4,4,7,7,8,8,9,9,10,10],"right_children":[2,4,6,8,10,-1,-1,12,14,16,18,-1,-1,-1,-1,-1,-1,-1,-1],"split_conditions":[2.8572125E8,1.7466848E1,1.4380696E9,3.75E1,-2.4E0,2.462435E-1,9.253458E-2,2.647926E12,5.167257E7,3.57E1,1.21E2,-4.9059683E-1,1.478848E-1,-4.3735605E-1,-6.466209E-2,-2.7021977E-1,7.500025E-2,1.5416236E-1,-2.6020867E-1],"split_indices":[9,7,9,4,2,0,0,8,9,1,5,0,0,0,0,0,0,0,0],"split_type":[0,0,0,0,0,0,0,0,0,0,0,0,0,0,0,0,0,0,0],"sum_hessian":[1.99E2,1.43E2,5.6E1,7.2E1,7.1E1,5.2E1,4E0,1.5E1,5.7E1,3.2E1,3.9E1,1.4E1,1E0,1.3E1,4.4E1,1.7E1,1.5E1,3.6E1,3E0],"tree_param":{"num_deleted":"0","num_feature":"10","num_nodes":"19","size_leaf_vector":"1"}},{"base_weights":[3.0460238E-1,-1.2282163E0,4.1444764E0,-4.701522E-1,-6.3126314E-1,4.5796266E0,2.4186635E0,-6.0964284E0,-2.0600997E-1,2.5413555E-1,3.5146782E0,3.8580194E-1,2.7253234E0,-4.4796976E-1,2.1893537E-2,-3.098073E-1,6.6902125E-3,1.8068509E-1,4.5781948E-2,3.9376784E-2,-1.0441638E-2,1.5525961E-2,1.4583111E-1],"categories":[],"categories_nodes":[],"categories_segments":[],"categories_sizes":[],"default_left":[0,0,0,0,0,0,0,0,0,0,0,0,0,0,0,0,0,0,0,0,0,0,0],"id":11,"left_children":[1,3,5,-1,7,9,11,13,15,-1,17,19,21,-1,-1,-1,-1,-1,-1,-1,-1,-1,-1],"loss_changes":[1.2175714E3,7.1630255E2,3.323169E1,0E0,3.2179102E2,6.7808228E0,7.67614E0,1.9099786E2,2.654484E2,0E0,1.3237457E0,8.811177E-1,4.6377106E0,0E0,0E0,0E0,0E0,0E0,0E0,0E0,0E0,0E0,0E0],"parents":[2147483647,0,0,1,1,2,2,4,4,5,5,6,6,7,7,8,8,10,10,11,11,12,12],"right_children":[2,4,6,-1,8,10,12,14,16,-1,18,20,22,-1,-1,-1,-1,-1,-1,-1,-1,-1,-1],"split_conditions":[2.7248938E8,2.4190908E7,1.39E1,-4.701522E-1,2.4836278E11,1.40276E9,5.99E1,3.36E1,1.82E1,2.5413555E-1,4.57E1,3.37E1,1.1122335E12,-4.4796976E-1,2.1893537E-2,-3.098073E-1,6.6902125E-3,1.8068509E-1,4.5781948E-2,3.9376784E-2,-1.0441638E-2,1.5525961E-2,1.4583111E-1],"split_indices":[9,9,2,0,8,9,4,4,4,0,1,1,8,0,0,0,0,0,0,0,0,0,0],"split_type":[0,0,0,0,0,0,0,0,0,0,0,0,0,0,0,0,0,0,0,0,0,0,0],"sum_hessian":[2.05E2,1.47E2,5.8E1,9E0,1.38E2,4.5E1,1.3E1,9E0,1.29E2,2.8E1,1.7E1,2E0,1.1E1,6E0,3E0,6E0,1.23E2,1.6E1,1E0,1E0,1E0,1E0,1E1],"tree_param":{"num_deleted":"0","num_feature":"10","num_nodes":"23","size_leaf_vector":"1"}},{"base_weights":[-5.4610294E-1,-2.3786786E0,4.1666594E0,-4.5505056E0,-1.3993225E-1,4.4138994E0,1.4942961E0,-2.6364686E0,-7.614626E0,2.1833158E0,-4.2232513E0,1.3218288E-1,2.2791305E-1,2.804629E-2,9.103749E-2,-7.498537E-2,-4.2154098E-1,-4.0454397E-1,1.0729261E-1,-4.719153E-1,1.480724E-1,-3.9917594E-1,-6.9059483E-3],"categories":[],"categories_nodes":[],"categories_segments":[],"categories_sizes":[],"default_left":[0,0,0,0,0,0,0,0,0,0,0,0,0,0,0,0,0,0,0,0,0,0,0],"id":12,"left_children":[1,3,5,7,9,11,13,15,17,19,21,-1,-1,-1,-1,-1,-1,-1,-1,-1,-1,-1,-1],"loss_changes":[1.633572E3,6.6061835E2,2.8422241E1,3.8459827E2,6.5430707E2,2.1612549E-1,8.0690765E-1,2.7717517E2,1.382218E2,4.2584998E2,3.829271E2,0E0,0E0,0E0,0E0,0E0,0E0,0E0,0E0,0E0,0E0,0E0,0E0],"parents":[2147483647,0,0,1,1,2,2,3,3,4,4,5,5,6,6,7,7,8,8,9,9,10,10],"right_children":[2,4,6,8,10,12,14,16,18,20,22,-1,-1,-1,-1,-1,-1,-1,-1,-1,-1,-1,-1],"split_conditions":[2.8572125E8,3.58E1,1.4380696E9,1.9203562E1,2.3E1,2.6748516E12,2.7E1,3.1604427E12,5E0,1.1141096E1,3.75E1,1.3218288E-1,2.2791305E-1,2.804629E-2,9.103749E-2,-7.498537E-2,-4.2154098E-1,-4.0454397E-1,1.0729261E-1,-4.719153E-1,1.480724E-1,-3.9917594E-1,-6.9059483E-3],"split_indices":[9,1,9,0,5,8,5,8,5,0,4,0,0,0,0,0,0,0,0,0,0,0,0],"split_type":[0,0,0,0,0,0,0,0,0,0,0,0,0,0,0,0,0,0,0,0,0,0,0],"sum_hessian":[1.87E2,1.35E2,5.2E1,6.8E1,6.7E1,4.7E1,5E0,4.3E1,2.5E1,4.3E1,2.4E1,5E0,4.2E1,2E0,3E0,3.7E1,6E0,2.4E1,1E0,2E0,4.1E1,1.2E1,1.2E1],"tree_param":{"num_deleted":"0","num_feature":"10","num_nodes":"23","size_leaf_vector":"1"}},{"base_weights":[-9.831943E-2,-1.4274732E0,4.060913E0,-4.3079087E-1,-8.962347E-1,2.1255684E-1,8.06403E-2,-5.0404506E0,-2.723329E-1,-3.646852E-1,3.408366E-2,-1.46793E-1,2.8057883E-2],"categories":[],"categories_nodes":[],"categories_segments":[],"categories_sizes":[],"default_left":[0,0,0,0,0,0,0,0,0,0,0,0,0],"id":13,"left_children":[1,3,5,-1,7,-1,-1,9,11,-1,-1,-1,-1],"loss_changes":[1.072751E3,5.536308E2,1.5031067E1,0E0,3.554379E2,0E0,0E0,2.3705304E2,2.7027045E2,0E0,0E0,0E0,0E0],"parents":[2147483647,0,0,1,1,2,2,4,4,7,7,8,8],"right_children":[2,4,6,-1,8,-1,-1,10,12,-1,-1,-1,-1],"split_conditions":[2.8572125E8,2.4190908E7,1.4254232E9,-4.3079087E-1,3.768234E11,2.1255684E-1,8.06403E-2,1E0,1.2495891E1,-3.646852E-1,3.408366E-2,-1.46793E-1,2.8057883E-2],"split_indices":[9,9,9,0,8,0,0,6,0,0,0,0,0],"split_type":[0,0,0,0,0,0,0,0,0,0,0,0,0],"sum_hessian":[1.92E2,1.46E2,4.6E1,9E0,1.37E2,4.2E1,4E0,1.7E1,1.2E2,1.2E1,5E0,2.8E1,9.2E1],"tree_param":{"num_deleted":"0","num_feature":"10","num_nodes":"13","size_leaf_vector":"1"}},{"base_weights":[5.051648E-1,-2.4114132E0,1.9030149E0,-4.2124095E0,4.225576E-1,-2.243692E0,2.6844628E0,-6.095153E0,-5.494806E-1,-4.628415E0,1.9167215E0,1.9697975E0,-5.567959E0,-9.8198265E-2,3.513805E0,1.8118136E-1,-3.3255434E-1,2.4399363E-1,-2.053998E-1,1.2073332E-1,-4.376811E-1,-2.0450747E-1,1.405691E-1,2.0097597E-1,-2.0763631E-1,-2.5986481E-2,-5.264783E-1,1.3276015E-1,-2.3845804E-1,6.901707E-2,1.875708E-1],"categories":[],"categories_nodes":[],"categories_segments":[],"categories_sizes":[],"default_left":[0,0,0,0,0,0,0,0,0,0,0,0,0,0,0,0,0,0,0,0,0,0,0,0,0,0,0,0,0,0,0],"id":14,"left_children":[1,3,5,7,9,11,13,15,17,19,21,23,25,27,29,-1,-1,-1,-1,-1,-1,-1,-1,-1,-1,-1,-1,-1,-1,-1,-1],"loss_changes":[7.7920734E2,3.1822617E2,4.2403934E2,2.5871234E2,1.975459E2,3.0510977E2,2.5189282E2,1.5917596E2,2.9053256E2,1.9546211E2,1.1898117E2,1.4218665E2,2.9509537E2,3.4705002E2,3.7404175E1,0E0,0E0,0E0,0E0,0E0,0E0,0E0,0E0,0E0,0E0,0E0,0E0,0E0,0E0,0E0,0E0],"parents":[2147483647,0,0,1,1,2,2,3,3,4,4,5,5,6,6,7,7,8,8,9,9,10,10,11,11,12,12,13,13,14,14],"right_children":[2,4,6,8,10,12,14,16,18,20,22,24,26,28,30,-1,-1,-1,-1,-1,-1,-1,-1,-1,-1,-1,-1,-1,-1,-1,-1],"split_conditions":[1.0590548E12,3.58E1,1.1746721E1,1.7384699E1,3.4E1,2.62E1,5.987722E7,1.835178E1,1.8104109E1,2.3002739E1,1.3616713E1,1.144E1,2.0267124E1,1.58912325E1,1.4761072E12,1.8118136E-1,-3.3255434E-1,2.4399363E-1,-2.053998E-1,1.2073332E-1,-4.376811E-1,-2.0450747E-1,1.405691E-1,2.0097597E-1,-2.0763631E-1,-2.5986481E-2,-5.264783E-1,1.3276015E-1,-2.3845804E-1,6.901707E-2,1.875708E-1],"split_indices":[8,1,0,7,4,4,9,0,7,0,7,0,7,0,8,0,0,0,0,0,0,0,0,0,0,0,0,0,0,0,0],"split_type":[0,0,0,0,0,0,0,0,0,0,0,0,0,0,0,0,0,0,0,0,0,0,0,0,0,0,0,0,0,0,0],"sum_hessian":[1.89E2,6.1E1,1.28E2,3.7E1,2.4E1,2E1,1.08E2,2.4E1,1.3E1,5E0,1.9E1,9E0,1.1E1,2.5E1,8.3E1,1E0,2.3E1,5E0,8E0,2E0,3E0,2E0,1.7E1,7E0,2E0,6E0,5E0,1.6E1,9E0,9E0,7.4E1],"tree_param":{"num_deleted":"0","num_feature":"10","num_nodes":"31","size_leaf_vector":"1"}},{"base_weights":[1.2337621E-1,-1.299419E0,3.204043E0,8.187633E-2,-3.8235645E0,3.9088068E0,-1.8655226E0,-2.2334592E0,1.2584176E0,-7.7684913E0,-1.010094E0,2.1646242E-1,2.7637982E0,-4.3741822E-1,1.8868185E0,-5.3397745E-1,-4.2407934E-2,-1.4222274E-2,1.6958533E-1,-4.169173E-1,6.2222052E-2,-2.9270306E-1,1.0031122E-1,7.547732E-2,1.5168016E-1,-1.630931E-2,1.19732834E-1],"categories":[],"categories_nodes":[],"categories_segments":[],"categories_sizes":[],"default_left":[0,0,0,0,0,0,0,0,0,0,0,0,0,0,0,0,0,0,0,0,0,0,0,0,0,0,0],"id":15,"left_children":[1,3,5,7,9,11,13,15,17,19,21,-1,23,-1,25,-1,-1,-1,-1,-1,-1,-1,-1,-1,-1,-1,-1],"loss_changes":[8.3258026E2,4.535699E2,2.2166272E2,2.3435811E2,5.0270404E2,1.35494995E1,2.2312073E2,3.3025287E2,1.88573E2,1.0796167E2,4.2085107E2,0E0,1.1734924E0,0E0,7.5241947E0,0E0,0E0,0E0,0E0,0E0,0E0,0E0,0E0,0E0,0E0,0E0,0E0],"parents":[2147483647,0,0,1,1,2,2,3,3,4,4,5,5,6,6,7,7,8,8,9,9,10,10,12,12,14,14],"right_children":[2,4,6,8,10,12,14,16,18,20,22,-1,24,-1,26,-1,-1,-1,-1,-1,-1,-1,-1,-1,-1,-1,-1],"split_conditions":[2.0866085E8,1.8567213E1,2.6726849E1,1.2495891E1,7.164149E7,1.40276E9,2.7107944E1,1.6267214E1,1.0381E3,3.8E1,8.8E0,2.1646242E-1,1.4921096E1,-4.3741822E-1,1.2884153E1,-5.3397745E-1,-4.2407934E-2,-1.4222274E-2,1.6958533E-1,-4.169173E-1,6.2222052E-2,-2.9270306E-1,1.0031122E-1,7.547732E-2,1.5168016E-1,-1.630931E-2,1.19732834E-1],"split_indices":[9,0,0,0,9,9,0,7,3,5,2,0,7,0,7,0,0,0,0,0,0,0,0,0,0,0,0],"split_type":[0,0,0,0,0,0,0,0,0,0,0,0,0,0,0,0,0,0,0,0,0,0,0,0,0,0,0],"sum_hessian":[1.88E2,1.29E2,5.9E1,8.4E1,4.5E1,5.2E1,7E0,2.8E1,5.6E1,1.8E1,2.7E1,3.6E1,1.6E1,2E0,5E0,3E0,2.5E1,3.3E1,2.3E1,1.7E1,1E0,1E1,1.7E1,4E0,1.2E1,1E0,4E0],"tree_param":{"num_deleted":"0","num_feature":"10","num_nodes":"27","size_leaf_vector":"1"}},{"base_weights":[1.9595946E-1,-3.780667E0,1.68933E0,-5.4046326E0,-3.2269928E-1,-2.4049253E0,2.3466725E0,3.918363E-1,-7.0747604E0,2.7674623E0,-4.531334E0,2.0543923E0,-5.549003E0,1.1204761E0,3.3701046E0,-1.616811E-1,1.9694637E-1,-3.785778E-1,1.584682E-1,3.9469626E-2,1.4431651E-1,-3.4563255E-1,8.708724E-2,2.1748303E-1,-1.9930153E-1,-5.036694E-1,-1.0138189E-1,7.108132E-2,-3.9359838E-1,5.9194405E-2,1.7844974E-1],"categories":[],"categories_nodes":[],"categories_segments":[],"categories_sizes":[],"default_left":[0,0,0,0,0,0,0,0,0,0,0,0,0,0,0,0,0,0,0,0,0,0,0,0,0,0,0,0,0,0,0],"id":16,"left_children":[1,3,5,7,9,11,13,15,17,19,21,23,25,27,29,-1,-1,-1,-1,-1,-1,-1,-1,-1,-1,-1,-1,-1,-1,-1,-1],"loss_changes":[1.1525321E3,2.958838E2,3.8512082E2,3.512826E2,2.4663681E2,2.9180865E2,1.4932513E2,1.2847545E2,1.664956E2,3.0796814E-1,1.3154558E2,1.4211737E2,1.7075894E2,1.6555133E2,2.4472656E1,0E0,0E0,0E0,0E0,0E0,0E0,0E0,0E0,0E0,0E0,0E0,0E0,0E0,0E0,0E0,0E0],"parents":[2147483647,0,0,1,1,2,2,3,3,4,4,5,5,6,6,7,7,8,8,9,9,10,10,11,11,12,12,13,13,14,14],"right_children":[2,4,6,8,10,12,14,16,18,20,22,24,26,28,30,-1,-1,-1,-1,-1,-1,-1,-1,-1,-1,-1,-1,-1,-1,-1,-1],"split_conditions":[6.469503E11,3.58E1,1.1647123E1,1.7510685E1,3.82E1,2.62E1,2.1792078E12,4.06E1,7E0,3.59E1,2.5785519E1,1.144E1,3.19E1,2.1040676E12,6.9281E7,-1.616811E-1,1.9694637E-1,-3.785778E-1,1.584682E-1,3.9469626E-2,1.4431651E-1,-3.4563255E-1,8.708724E-2,2.1748303E-1,-1.9930153E-1,-5.036694E-1,-1.0138189E-1,7.108132E-2,-3.9359838E-1,5.9194405E-2,1.7844974E-1],"split_indices":[8,1,0,0,1,4,8,4,6,1,0,0,4,8,9,0,0,0,0,0,0,0,0,0,0,0,0,0,0,0,0],"split_type":[0,0,0,0,0,0,0,0,0,0,0,0,0,0,0,0,0,0,0,0,0,0,0,0,0,0,0,0,0,0,0],"sum_hessian":[1.92E2,5.2E1,1.4E2,3.5E1,1.7E1,1.9E1,1.21E2,8E0,2.7E1,1E1,7E0,8E0,1.1E1,5.6E1,6.5E1,4E0,4E0,2.6E1,1E0,1E0,9E0,5E0,2E0,6E0,2E0,4E0,7E0,5.5E1,1E0,6E0,5.9E1],"tree_param":{"num_deleted":"0","num_feature":"10","num_nodes":"31","size_leaf_vector":"1"}},{"base_weights":[-2.8580287E-1,-1.5829511E0,3.2938056E0,-3.8738048E0,1.9293612E-1,3.737754E0,2.3215747E0,-7.085082E0,-2.0453272E0,-1.1536204E0,3.6117647E0,9.4294205E-2,1.967477E-1,2.4250028E0,1.4082479E-2,-4.0285446E-2,-4.2575938E-1,-1.9409661E-1,1.4912848E-1,3.9486095E-2,-1.5625834E-1,8.880641E-2,1.9040607E-1,6.532022E-2,1.334347E-1],"categories":[],"categories_nodes":[],"categories_segments":[],"categories_sizes":[],"default_left":[0,0,0,0,0,0,0,0,0,0,0,0,0,0,0,0,0,0,0,0,0,0,0,0,0],"id":17,"left_children":[1,3,5,7,9,11,13,15,17,19,21,-1,-1,23,-1,-1,-1,-1,-1,-1,-1,-1,-1,-1,-1],"loss_changes":[8.5493475E2,5.4996765E2,1.2471924E1,3.319419E2,3.586473E2,4.265167E0,3.1147385E0,1.8172266E2,3.7171423E2,2.1702585E2,1.1659851E0,0E0,0E0,1.1476822E0,0E0,0E0,0E0,0E0,0E0,0E0,0E0,0E0,0E0,0E0,0E0],"parents":[2147483647,0,0,1,1,2,2,3,3,4,4,5,5,6,6,7,7,8,8,9,9,10,10,13,13],"right_children":[2,4,6,8,10,12,14,16,18,20,22,-1,-1,24,-1,-1,-1,-1,-1,-1,-1,-1,-1,-1,-1],"split_conditions":[2.8348794E8,1.7466848E1,1.40276E9,5.9133172E7,1.0516E3,2.6748516E12,1.9130054E1,1.0750089E11,1.9448E3,2.0267124E1,3.99E1,9.4294205E-2,1.967477E-1,1.4921096E1,1.4082479E-2,-4.0285446E-2,-4.2575938E-1,-1.9409661E-1,1.4912848E-1,3.9486095E-2,-1.5625834E-1,8.880641E-2,1.9040607E-1,6.532022E-2,1.334347E-1],"split_indices":[9,7,9,9,3,8,7,8,3,7,4,0,0,7,0,0,0,0,0,0,0,0,0,0,0],"split_type":[0,0,0,0,0,0,0,0,0,0,0,0,0,0,0,0,0,0,0,0,0,0,0,0,0],"sum_hessian":[1.82E2,1.34E2,4.8E1,5.8E1,7.6E1,3.1E1,1.7E1,2E1,3.8E1,5.5E1,2.1E1,4E0,2.7E1,1.6E1,1E0,4E0,1.6E1,2.8E1,1E1,2.8E1,2.7E1,3E0,1.8E1,4E0,1.2E1],"tree_param":{"num_deleted":"0","num_feature":"10","num_nodes":"25","size_leaf_vector":"1"}},{"base_weights":[-1.2387403E-1,-2.7154107E0,1.0716301E0,1.22314185E-1,-3.866926E0,-2.2996972E0,1.8320132E0,4.4218183E0,-2.3959227E0,-5.2012587E0,9.230653E-1,1.9076656E-1,-4.109722E0,2.3992496E0,-1.4731919E0,2.4142806E-1,4.9533963E-2,-3.923615E-1,1.3094503E-1,-2.9046297E-1,1.4075828E-1,-1.3697568E-1,1.4420505E-1,-2.687059E-1,2.2125474E-1,1.8519372E-1,8.42603E-2,-5.606088E-1,8.183706E-2],"categories":[],"categories_nodes":[],"categories_segments":[],"categories_sizes":[],"default_left":[0,0,0,0,0,0,0,0,0,0,0,0,0,0,0,0,0,0,0,0,0,0,0,0,0,0,0,0,0],"id":18,"left_children":[1,3,5,7,9,11,13,15,17,19,21,-1,23,25,27,-1,-1,-1,-1,-1,-1,-1,-1,-1,-1,-1,-1,-1,-1],"loss_changes":[5.791738E2,1.932663E2,3.3234113E2,2.054834E2,2.732417E2,2.8132043E2,2.0039197E2,4.9855804E0,3.4859915E2,1.7719568E2,7.972551E1,0E0,2.2881732E2,7.759857E1,5.0295285E2,0E0,0E0,0E0,0E0,0E0,0E0,0E0,0E0,0E0,0E0,0E0,0E0,0E0,0E0],"parents":[2147483647,0,0,1,1,2,2,3,3,4,4,5,5,6,6,7,7,8,8,9,9,10,10,12,12,13,13,14,14],"right_children":[2,4,6,8,10,12,14,16,18,20,22,-1,24,26,28,-1,-1,-1,-1,-1,-1,-1,-1,-1,-1,-1,-1,-1,-1],"split_conditions":[1.0590548E12,1.8567213E1,1.1746721E1,4.2173927E11,2.7261095E1,6.092E2,2.8E1,1.8989315E1,3.58E1,6E0,1.4454795E1,1.9076656E-1,1.1147E3,8.672E2,1.4612449E12,2.4142806E-1,4.9533963E-2,-3.923615E-1,1.3094503E-1,-2.9046297E-1,1.4075828E-1,-1.3697568E-1,1.4420505E-1,-2.687059E-1,2.2125474E-1,1.8519372E-1,8.42603E-2,-5.606088E-1,8.183706E-2],"split_indices":[8,0,0,8,0,3,5,7,1,6,7,0,3,3,8,0,0,0,0,0,0,0,0,0,0,0,0,0,0],"split_type":[0,0,0,0,0,0,0,0,0,0,0,0,0,0,0,0,0,0,0,0,0,0,0,0,0,0,0,0,0],"sum_hessian":[1.85E2,5.8E1,1.27E2,1.7E1,4.1E1,2.3E1,1.04E2,6E0,1.1E1,3.2E1,9E0,5E0,1.8E1,8.9E1,1.5E1,5E0,1E0,5E0,6E0,3E1,2E0,3E0,6E0,1.6E1,2E0,3E1,5.9E1,3E0,1.2E1],"tree_param":{"num_deleted":"0","num_feature":"10","num_nodes":"29","size_leaf_vector":"1"}},{"base_weights":[2.8625983E-1,-2.504502E0,1.734323E0,-3.7022667E0,1.8147151E0,-8.71925E-1,2.480251E0,-5.6464834E0,-5.633522E-1,2.721204E0,-2.7183084E0,2.2870293E0,-4.935794E0,3.1181543E0,-3.7587937E-2,4.691519E-2,-3.3103392E-1,-1.14059865E-1,2.0557301E-1,1.447513E-1,1.588359E-2,-3.0242717E-1,9.855404E-2,-3.1153643E-1,1.6044049E-1,-5.23952E-1,6.562828E-2,9.272204E-2,1.6372126E-1,-2.302767E-1,1.048313E-1],"categories":[],"categories_nodes":[],"categories_segments":[],"categories_sizes":[],"default_left":[0,0,0,0,0,0,0,0,0,0,0,0,0,0,0,0,0,0,0,0,0,0,0,0,0,0,0,0,0,0,0],"id":19,"left_children":[1,3,5,7,9,11,13,15,17,19,21,23,25,27,29,-1,-1,-1,-1,-1,-1,-1,-1,-1,-1,-1,-1,-1,-1,-1,-1],"loss_changes":[7.802539E2,3.4816336E2,2.4905994E2,3.1416107E2,6.90341E1,3.8357803E2,1.5912482E2,2.1148798E2,1.7802173E2,4.511551E0,5.877247E1,1.5346878E2,4.64025E2,9.528809E0,2.1438454E2,0E0,0E0,0E0,0E0,0E0,0E0,0E0,0E0,0E0,0E0,0E0,0E0,0E0,0E0,0E0,0E0],"parents":[2147483647,0,0,1,1,2,2,3,3,4,4,5,5,6,6,7,7,8,8,9,9,10,10,11,11,12,12,13,13,14,14],"right_children":[2,4,6,8,10,12,14,16,18,20,22,24,26,28,30,-1,-1,-1,-1,-1,-1,-1,-1,-1,-1,-1,-1,-1,-1,-1,-1],"split_conditions":[9.3187736E11,2.713907E1,1.2495891E1,1.7384699E1,5.067542E11,7.55E2,2.1E1,1.8567213E1,1.0381E3,2.8439344E1,2.765863E1,1.3781421E1,1.1628E3,1.2950546E1,2.1792078E12,4.691519E-2,-3.3103392E-1,-1.14059865E-1,2.0557301E-1,1.447513E-1,1.588359E-2,-3.0242717E-1,9.855404E-2,-3.1153643E-1,1.6044049E-1,-5.23952E-1,6.562828E-2,9.272204E-2,1.6372126E-1,-2.302767E-1,1.048313E-1],"split_indices":[8,0,0,7,8,3,5,0,3,0,0,7,3,7,8,0,0,0,0,0,0,0,0,0,0,0,0,0,0,0,0],"split_type":[0,0,0,0,0,0,0,0,0,0,0,0,0,0,0,0,0,0,0,0,0,0,0,0,0,0,0,0,0,0,0],"sum_hessian":[1.91E2,6.5E1,1.26E2,5.1E1,1.4E1,2.8E1,9.8E1,3.1E1,2E1,1.2E1,2E0,1.6E1,1.2E1,7.8E1,2E1,4E0,2.7E1,1.5E1,5E0,1.1E1,1E0,1E0,1E0,1E0,1.5E1,6E0,6E0,1E1,6.8E1,6E0,1.4E1],"tree_param":{"num_deleted":"0","num_feature":"10","num_nodes":"31","size_leaf_vector":"1"}},{"base_weights":[-3.3659896E-1,-1.6663485E0,2.568209E0,-2.9849875E0,3.180492E-1,3.0666919E0,8.3508193E-1,-4.4222927E0,-1.1054397E0,3.7058065E0,-1.0799551E0,1.851751E-1,2.409903E0,-3.3847058E-1,1.8617895E0,-1.2395834E-1,-3.5996252E-1,-1.9576205E-1,9.609376E-2,1.9742754E-1,1.6161442E-3,-1.244477E-1,1.6275187E-1,1.234743E-1,2.3008252E-2,1.1982596E-1,2.0998593E-2],"categories":[],"categories_nodes":[],"categories_segments":[],"categories_sizes":[],"default_left":[0,0,0,0,0,0,0,0,0,0,0,0,0,0,0,0,0,0,0,0,0,0,0,0,0,0,0],"id":20,"left_children":[1,3,5,7,9,11,13,15,17,19,21,-1,23,-1,25,-1,-1,-1,-1,-1,-1,-1,-1,-1,-1,-1,-1],"loss_changes":[7.4977423E2,3.4897107E2,5.013907E1,2.1123016E2,2.597515E2,1.07326355E1,1.2971707E2,2.2497089E2,3.1374612E2,1.4139816E1,2.4631363E2,0E0,1.8840942E0,0E0,9.787285E0,0E0,0E0,0E0,0E0,0E0,0E0,0E0,0E0,0E0,0E0,0E0,0E0],"parents":[2147483647,0,0,1,1,2,2,3,3,4,4,5,5,6,6,7,7,8,8,9,9,10,10,12,12,14,14],"right_children":[2,4,6,8,10,12,14,16,18,20,22,-1,24,-1,26,-1,-1,-1,-1,-1,-1,-1,-1,-1,-1,-1,-1],"split_conditions":[2.3267947E8,1.8470684E1,1.8209E3,3E0,2.0267124E1,1.3439443E9,1.9448E3,9.6E0,1.1628E3,1.4439E3,1.0381E3,1.851751E-1,4.57E1,-3.3847058E-1,3.71E1,-1.2395834E-1,-3.5996252E-1,-1.9576205E-1,9.609376E-2,1.9742754E-1,1.6161442E-3,-1.244477E-1,1.6275187E-1,1.234743E-1,2.3008252E-2,1.1982596E-1,2.0998593E-2],"split_indices":[9,7,3,5,7,9,3,2,3,3,3,0,1,0,1,0,0,0,0,0,0,0,0,0,0,0,0],"split_type":[0,0,0,0,0,0,0,0,0,0,0,0,0,0,0,0,0,0,0,0,0,0,0,0,0,0,0],"sum_hessian":[1.92E2,1.32E2,6E1,7.9E1,5.3E1,4.6E1,1.4E1,4.4E1,3.5E1,1.5E1,3.8E1,2.1E1,2.5E1,1E0,1.3E1,2.7E1,1.7E1,1.8E1,1.7E1,1.4E1,1E0,2.9E1,9E0,2.4E1,1E0,9E0,4E0],"tree_param":{"num_deleted":"0","num_feature":"10","num_nodes":"27","size_leaf_vector":"1"}},{"base_weights":[-2.6319635E-1,-1.2557133E0,2.846659E0,-2.3289113E0,9.66796E-2,1.7131619E-1,2.1995008E0,-4.348498E0,-4.8589346E-1,-6.637223E0,8.806902E-1,2.2770164E0,8.478165E-3,-1.4765911E-1,-5.1526004E-1,9.3882866E-2,-2.0021129E-1,1.1780727E-1,-4.2644045E-1,9.5418036E-2,-1.0323381E-1,1.15979016E-1,3.24512E-2],"categories":[],"categories_nodes":[],"categories_segments":[],"categories_sizes":[],"default_left":[0,0,0,0,0,0,0,0,0,0,0,0,0,0,0,0,0,0,0,0,0,0,0],"id":21,"left_children":[1,3,5,7,9,-1,11,13,15,17,19,21,-1,-1,-1,-1,-1,-1,-1,-1,-1,-1,-1],"loss_changes":[5.9928534E2,2.135788E2,1.0095154E1,3.0310205E2,3.5428912E2,0E0,3.5476913E0,2.9371466E2,3.7341187E2,1.3917719E2,1.855521E2,1.5757751E-1,0E0,0E0,0E0,0E0,0E0,0E0,0E0,0E0,0E0,0E0,0E0],"parents":[2147483647,0,0,1,1,2,2,3,3,4,4,6,6,7,7,8,8,9,9,10,10,11,11],"right_children":[2,4,6,8,10,-1,12,14,16,18,20,22,-1,-1,-1,-1,-1,-1,-1,-1,-1,-1,-1],"split_conditions":[2.8572125E8,3.58E1,1.3439443E9,8.234867E7,1.82E1,1.7131619E-1,2.6700823E1,6.8526E7,3.43E1,1.42E1,2.8E1,1.3E1,8.478165E-3,-1.4765911E-1,-5.1526004E-1,9.3882866E-2,-2.0021129E-1,1.1780727E-1,-4.2644045E-1,9.5418036E-2,-1.0323381E-1,1.15979016E-1,3.24512E-2],"split_indices":[9,1,9,9,4,0,0,9,1,3,5,6,0,0,0,0,0,0,0,0,0,0,0],"split_type":[0,0,0,0,0,0,0,0,0,0,0,0,0,0,0,0,0,0,0,0,0,0,0],"sum_hessian":[1.92E2,1.46E2,4.6E1,8.1E1,6.5E1,2.2E1,2.4E1,3.8E1,4.3E1,6E0,5.9E1,2.3E1,1E0,3.2E1,6E0,2.6E1,1.7E1,1E0,5E0,4.4E1,1.5E1,2.2E1,1E0],"tree_param":{"num_deleted":"0","num_feature":"10","num_nodes":"23","size_leaf_vector":"1"}},{"base_weights":[3.3707598E-1,-3.9778059E0,9.1384625E-1,-3.6908644E-1,-1.0534184E0,1.1032637E0,-2.6651412E-1,2.6312482E-1,-4.4452133E0,-1.1473721E0,1.6102546E0,-3.089074E-1,5.4001875E-2,-4.8256737E-1,7.748565E-3,7.6754177E-3,1.2685059E-1],"categories":[],"categories_nodes":[],"categories_segments":[],"categories_sizes":[],"default_left":[0,0,0,0,0,0,0,0,0,0,0,0,0,0,0,0,0],"id":22,"left_children":[1,3,5,-1,7,9,-1,-1,11,13,15,-1,-1,-1,-1,-1,-1],"loss_changes":[4.6404373E2,2.1122049E2,1.9985121E2,0E0,3.0188266E2,1.844159E2,0E0,0E0,9.284671E1,3.3374854E2,1.7646701E2,0E0,0E0,0E0,0E0,0E0,0E0],"parents":[2147483647,0,0,1,1,2,2,4,4,5,5,8,8,9,9,10,10],"right_children":[2,4,6,-1,8,10,-1,-1,12,14,16,-1,-1,-1,-1,-1,-1],"split_conditions":[3.814488E11,8.309E2,2.8738E3,-3.6908644E-1,3.1867883E11,1.2495891E1,-2.6651412E-1,2.6312482E-1,2.713907E1,1.6267214E1,1.3983496E12,-3.089074E-1,5.4001875E-2,-4.8256737E-1,7.748565E-3,7.6754177E-3,1.2685059E-1],"split_indices":[8,3,3,0,8,0,0,0,0,7,8,0,0,0,0,0,0],"split_type":[0,0,0,0,0,0,0,0,0,0,0,0,0,0,0,0,0],"sum_hessian":[1.84E2,2.1E1,1.63E2,9E0,1.2E1,1.59E2,4E0,4E0,8E0,2.9E1,1.3E2,6E0,2E0,3E0,2.6E1,5.1E1,7.9E1],"tree_param":{"num_deleted":"0","num_feature":"10","num_nodes":"17","size_leaf_vector":"1"}},{"base_weights":[2.1447174E-2,-2.4807131E0,1.1251838E0,-4.184381E0,-2.4347575E-1,-2.5126615E0,1.849265E0,-1.6772478E0,-7.248266E0,2.223471E0,-3.0712237E0,-3.9935544E-1,-5.7556534E0,6.2193877E-1,2.5042799E0,1.3540323E-1,-2.4132307E-1,1.2545638E-1,-4.062223E-1,1.4555757E-1,5.1083595E-2,-4.3355018E-1,-6.324045E-2,2.1854968E-1,-1.6108146E-1,-4.64501E-1,2.2048762E-1,7.131295E-2,-5.020768E-1,1.375389E-1,8.755886E-2],"categories":[],"categories_nodes":[],"categories_segments":[],"categories_sizes":[],"default_left":[0,0,0,0,0,0,0,0,0,0,0,0,0,0,0,0,0,0,0,0,0,0,0,0,0,0,0,0,0,0,0],"id":23,"left_children":[1,3,5,7,9,11,13,15,17,19,21,23,25,27,29,-1,-1,-1,-1,-1,-1,-1,-1,-1,-1,-1,-1,-1,-1,-1,-1],"loss_changes":[5.413278E2,2.2767172E2,3.628835E2,2.4901617E2,1.9517818E2,1.5533043E2,9.008905E1,2.8927606E2,1.4862378E2,9.422562E0,1.2053466E2,2.1603018E2,3.6432114E2,3.6597263E2,8.920166E0,0E0,0E0,0E0,0E0,0E0,0E0,0E0,0E0,0E0,0E0,0E0,0E0,0E0,0E0,0E0,0E0],"parents":[2147483647,0,0,1,1,2,2,3,3,4,4,5,5,6,6,7,7,8,8,9,9,10,10,11,11,12,12,13,13,14,14],"right_children":[2,4,6,8,10,12,14,16,18,20,22,24,26,28,30,-1,-1,-1,-1,-1,-1,-1,-1,-1,-1,-1,-1,-1,-1,-1,-1],"split_conditions":[1.0590548E12,3.58E1,1.1746721E1,4.2173927E11,2E1,7.55E2,1.8753883E12,1.8567213E1,3.14E1,2.0236E3,3.8E1,8.2657E7,1.1628E3,1.8448009E12,1.40276E9,1.3540323E-1,-2.4132307E-1,1.2545638E-1,-4.062223E-1,1.4555757E-1,5.1083595E-2,-4.3355018E-1,-6.324045E-2,2.1854968E-1,-1.6108146E-1,-4.64501E-1,2.2048762E-1,7.131295E-2,-5.020768E-1,1.375389E-1,8.755886E-2],"split_indices":[8,1,0,8,5,3,8,0,1,3,5,9,3,8,9,0,0,0,0,0,0,0,0,0,0,0,0,0,0,0,0],"split_type":[0,0,0,0,0,0,0,0,0,0,0,0,0,0,0,0,0,0,0,0,0,0,0,0,0,0,0,0,0,0,0],"sum_hessian":[1.94E2,5.9E1,1.35E2,3.3E1,2.6E1,2.2E1,1.13E2,1.9E1,1.4E1,1.4E1,1.2E1,1.4E1,8E0,4E1,7.3E1,8E0,1.1E1,1E0,1.3E1,8E0,6E0,2E0,1E1,5E0,9E0,6E0,2E0,3.8E1,2E0,5.3E1,2E1],"tree_param":{"num_deleted":"0","num_feature":"10","num_nodes":"31","size_leaf_vector":"1"}},{"base_weights":[1.380707E-1,-2.1195698E0,1.1984683E0,-3.8333063E0,6.3864195E-1,5.0559616E-1,2.7577736E0,-3.3643004E-1,-2.6029084E0,-5.2133656E0,2.362312E0,3.1822639E0,-2.598965E-3,1.5213493E-1,1.704097E0,1.896751E-1,-1.7434299E-1,1.2567024E-1,-3.6307004E-1,1.401562E-1,4.3328222E-2,6.284781E-2,1.6908881E-1,1.0039475E-1,-3.5311427E-2,2.0591974E-2,8.960694E-2],"categories":[],"categories_nodes":[],"categories_segments":[],"categories_sizes":[],"default_left":[0,0,0,0,0,0,0,0,0,0,0,0,0,0,0,0,0,0,0,0,0,0,0,0,0,0,0],"id":24,"left_children":[1,3,5,7,9,11,13,-1,15,17,19,21,23,-1,25,-1,-1,-1,-1,-1,-1,-1,-1,-1,-1,-1,-1],"loss_changes":[4.717636E2,3.0023953E2,1.433792E2,1.21418274E2,2.6448886E2,1.27873604E2,7.1239014E0,0E0,1.7719673E2,1.1319902E2,1.0757767E1,1.5110931E0,1.14589485E2,0E0,5.134258E-1,0E0,0E0,0E0,0E0,0E0,0E0,0E0,0E0,0E0,0E0,0E0,0E0],"parents":[2147483647,0,0,1,1,2,2,3,3,4,4,5,5,6,6,8,8,9,9,10,10,11,11,12,12,14,14],"right_children":[2,4,6,8,10,12,14,-1,16,18,20,22,24,-1,26,-1,-1,-1,-1,-1,-1,-1,-1,-1,-1,-1,-1],"split_conditions":[1.0590548E12,3.58E1,4.685593E12,4.9355144E7,3.4E1,4.657123E7,1.3890303E9,-3.3643004E-1,1.3303561E1,1.42E1,2.0236E3,3.02E1,3.11E1,1.5213493E-1,1.2950546E1,1.896751E-1,-1.7434299E-1,1.2567024E-1,-3.6307004E-1,1.401562E-1,4.3328222E-2,6.284781E-2,1.6908881E-1,1.0039475E-1,-3.5311427E-2,2.0591974E-2,8.960694E-2],"split_indices":[8,1,8,9,4,9,9,0,7,3,3,4,4,0,7,0,0,0,0,0,0,0,0,0,0,0,0],"split_type":[0,0,0,0,0,0,0,0,0,0,0,0,0,0,0,0,0,0,0,0,0,0,0,0,0,0,0],"sum_hessian":[1.95E2,6.2E1,1.33E2,3.8E1,2.4E1,9.3E1,4E1,1E1,2.8E1,5E0,1.9E1,1.4E1,7.9E1,3E1,1E1,3E0,2.5E1,1E0,4E0,1.4E1,5E0,2E0,1.2E1,2E1,5.9E1,1E0,9E0],"tree_param":{"num_deleted":"0","num_feature":"10","num_nodes":"27","size_leaf_vector":"1"}},{"base_weights":[-1.967548E-1,-1.1388984E0,2.4022965E0,2.0195748E-1,-1.9754527E0,2.525207E0,7.173149E-1,-2.5497637E0,2.4314198E0,-4.87981E0,-8.453863E-1,2.094563E0,1.4998288E-1,-1.0837555E-3,4.5374062E-2,1.8214981E-1,-1.9206554E-1,-3.1193662E-1,1.4561757E-1,1.4157318E-1,-3.030025E-1,1.2801884E-1,-1.1383301E-1,1.0703436E-1,2.0077182E-2],"categories":[],"categories_nodes":[],"categories_segments":[],"categories_sizes":[],"default_left":[0,0,0,0,0,0,0,0,0,0,0,0,0,0,0,0,0,0,0,0,0,0,0,0,0],"id":25,"left_children":[1,3,5,7,9,11,13,15,17,19,21,23,-1,-1,-1,-1,-1,-1,-1,-1,-1,-1,-1,-1,-1],"loss_changes":[4.875745E2,1.6416699E2,9.165009E0,3.5588644E2,2.912651E2,3.7286682E0,7.223246E-1,2.2194815E2,1.5160143E2,2.4468762E2,3.275514E2,1.4050217E0,0E0,0E0,0E0,0E0,0E0,0E0,0E0,0E0,0E0,0E0,0E0,0E0,0E0],"parents":[2147483647,0,0,1,1,2,2,3,3,4,4,5,5,6,6,7,7,8,8,9,9,10,10,11,11],"right_children":[2,4,6,8,10,12,14,16,18,20,22,24,-1,-1,-1,-1,-1,-1,-1,-1,-1,-1,-1,-1,-1],"split_conditions":[2.8348794E8,1.5903835E1,1.4380696E9,1.2495891E1,1.0381E3,1.9612102E13,2.6E1,1.8242514E12,3.4479512E11,2.5649248E7,1.9533152E1,1.949804E13,1.4998288E-1,-1.0837555E-3,4.5374062E-2,1.8214981E-1,-1.9206554E-1,-3.1193662E-1,1.4561757E-1,1.4157318E-1,-3.030025E-1,1.2801884E-1,-1.1383301E-1,1.0703436E-1,2.0077182E-2],"split_indices":[9,0,9,0,3,8,5,8,8,9,0,8,0,0,0,0,0,0,0,0,0,0,0,0,0],"split_type":[0,0,0,0,0,0,0,0,0,0,0,0,0,0,0,0,0,0,0,0,0,0,0,0,0],"sum_hessian":[1.97E2,1.45E2,5.2E1,5.6E1,8.9E1,4.8E1,4E0,2.5E1,3.1E1,2.4E1,6.5E1,2.8E1,2E1,1E0,3E0,4E0,2.1E1,1E0,3E1,3E0,2.1E1,1.9E1,4.6E1,2.7E1,1E0],"tree_param":{"num_deleted":"0","num_feature":"10","num_nodes":"25","size_leaf_vector":"1"}},{"base_weights":[-1.8029186E-1,-9.942768E-1,2.299335E0,-2.2452729E0,4.73708E-1,1.3179637E-1,1.5304945E0,1.48928E0,-3.0034316E0,-5.0489993E0,9.92161E-1,3.5473596E-2,8.642711E-2,1.7372951E-1,-2.1713214E-1,-9.5416844E-2,-3.6606264E-1,1.3010354E-1,-3.549814E-1,1.2934995E-1,-6.2576733E-3],"categories":[],"categories_nodes":[],"categories_segments":[],"categories_sizes":[],"default_left":[0,0,0,0,0,0,0,0,0,0,0,0,0,0,0,0,0,0,0,0,0],"id":26,"left_children":[1,3,5,7,9,-1,11,13,15,17,19,-1,-1,-1,-1,-1,-1,-1,-1,-1,-1],"loss_changes":[3.918333E2,2.6918433E2,8.387436E0,2.2815222E2,1.9971136E2,0E0,1.5378723E0,1.7718338E2,2.981045E2,1.1261072E2,1.1258572E2,0E0,0E0,0E0,0E0,0E0,0E0,0E0,0E0,0E0,0E0],"parents":[2147483647,0,0,1,1,2,2,3,3,4,4,6,6,7,7,8,8,9,9,10,10],"right_children":[2,4,6,8,10,-1,12,14,16,18,20,-1,-1,-1,-1,-1,-1,-1,-1,-1,-1],"split_conditions":[2.8572125E8,3.58E1,1.40276E9,2.62E1,1.82E1,1.3179637E-1,1.4921096E1,1.6992054E1,2.0578142E1,1.42E1,1.58912325E1,3.5473596E-2,8.642711E-2,1.7372951E-1,-2.1713214E-1,-9.5416844E-2,-3.6606264E-1,1.3010354E-1,-3.549814E-1,1.2934995E-1,-6.2576733E-3],"split_indices":[9,1,9,4,4,0,7,0,7,3,0,0,0,0,0,0,0,0,0,0,0],"split_type":[0,0,0,0,0,0,0,0,0,0,0,0,0,0,0,0,0,0,0,0,0],"sum_hessian":[1.92E2,1.45E2,4.7E1,7.8E1,6.7E1,3.1E1,1.6E1,1.3E1,6.5E1,5E0,6.2E1,4E0,1.2E1,1E1,3E0,5.3E1,1.2E1,1E0,4E0,2.5E1,3.7E1],"tree_param":{"num_deleted":"0","num_feature":"10","num_nodes":"21","size_leaf_vector":"1"}},{"base_weights":[-5.0659084E-1,-2.813603E0,6.2365586E-1,-6.2052307E0,-1.5991423E0,-3.9798537E-1,2.0576077E0,-3.4608036E-1,-7.9373044E-1,-3.178934E0,1.6603878E0,1.8867823E-1,-5.334878E0,1.3298635E-1,1.5444992E0,1.2685096E-1,-1.8638074E-1,2.3167363E-1,-2.0734446E-1,1.3405779E-1,-1.828329E-1,-1.0198702E-1,6.864877E-2,1.9263558E-1,-4.519763E-1,8.5869215E-2,2.68957E-2],"categories":[],"categories_nodes":[],"categories_segments":[],"categories_sizes":[],"default_left":[0,0,0,0,0,0,0,0,0,0,0,0,0,0,0,0,0,0,0,0,0,0,0,0,0,0,0],"id":27,"left_children":[1,3,5,7,9,11,13,-1,15,17,19,21,23,-1,25,-1,-1,-1,-1,-1,-1,-1,-1,-1,-1,-1,-1],"loss_changes":[4.9196338E2,2.4545483E2,1.8687189E2,5.6532898E1,2.4729907E2,2.1822871E2,1.2266525E1,0E0,3.8773136E1,2.6120035E2,9.664357E1,1.8226E2,3.0712097E2,0E0,4.4709244E0,0E0,0E0,0E0,0E0,0E0,0E0,0E0,0E0,0E0,0E0,0E0,0E0],"parents":[2147483647,0,0,1,1,2,2,3,3,4,4,5,5,6,6,8,8,9,9,10,10,11,11,12,12,14,14],"right_children":[2,4,6,8,10,12,14,-1,16,18,20,22,24,-1,26,-1,-1,-1,-1,-1,-1,-1,-1,-1,-1,-1,-1],"split_conditions":[1.0590548E12,3.5E1,2.8572125E8,4.51E1,5E0,2.8E1,1.3439443E9,-3.4608036E-1,2.3002739E1,3.91E1,1.362E2,1.2495891E1,1.58912325E1,1.3298635E-1,1.4380696E9,1.2685096E-1,-1.8638074E-1,2.3167363E-1,-2.0734446E-1,1.3405779E-1,-1.828329E-1,-1.0198702E-1,6.864877E-2,1.9263558E-1,-4.519763E-1,8.5869215E-2,2.68957E-2],"split_indices":[8,4,9,1,5,5,9,0,0,4,4,0,0,0,9,0,0,0,0,0,0,0,0,0,0,0,0],"split_type":[0,0,0,0,0,0,0,0,0,0,0,0,0,0,0,0,0,0,0,0,0,0,0,0,0,0,0],"sum_hessian":[1.87E2,6.1E1,1.26E2,1.5E1,4.6E1,7.4E1,5.2E1,1.3E1,2E0,3.1E1,1.5E1,6.7E1,7E0,2.2E1,3E1,1E0,1E0,3E0,2.8E1,1.3E1,2E0,2.3E1,4.4E1,2E0,5E0,2.5E1,5E0],"tree_param":{"num_deleted":"0","num_feature":"10","num_nodes":"27","size_leaf_vector":"1"}},{"base_weights":[-4.024642E-2,-7.249995E-1,2.0707324E0,-2.0808146E0,1.918107E-1,1.2704253E-1,1.5935674E0,-4.6518645E-1,-1.4107201E0,-1.8034053E0,8.1613845E-1,1.6928658E0,2.3489062E-1,-2.0759094E-1,9.158308E-3,1.4179926E-1,-1.8602128E-1,1.1511482E-1,-2.1209998E-2,3.3358924E-2,8.7652415E-2,1.7795468E-2,-1.7867089E-4],"categories":[],"categories_nodes":[],"categories_segments":[],"categories_sizes":[],"default_left":[0,0,0,0,0,0,0,0,0,0,0,0,0,0,0,0,0,0,0,0,0,0,0],"id":28,"left_children":[1,3,5,7,9,-1,11,-1,13,15,17,19,21,-1,-1,-1,-1,-1,-1,-1,-1,-1,-1],"loss_changes":[2.891556E2,1.8809592E2,6.942871E0,2.8211728E2,1.1482767E2,0E0,3.2450485E0,0E0,2.4979344E2,2.0621478E2,1.3001036E2,3.7361145E-1,8.7847665E-2,0E0,0E0,0E0,0E0,0E0,0E0,0E0,0E0,0E0,0E0],"parents":[2147483647,0,0,1,1,2,2,3,3,4,4,6,6,8,8,9,9,10,10,11,11,12,12],"right_children":[2,4,6,8,10,-1,12,-1,14,16,18,20,22,-1,-1,-1,-1,-1,-1,-1,-1,-1,-1],"split_conditions":[2.8572125E8,1.6909315E1,3.4178486E8,-1.32E1,3.31E1,1.2704253E-1,1.9353973E1,-4.6518645E-1,5.16E1,2.44E1,1.58912325E1,1.2950546E1,2.649096E1,-2.0759094E-1,9.158308E-3,1.4179926E-1,-1.8602128E-1,1.1511482E-1,-2.1209998E-2,3.3358924E-2,8.7652415E-2,1.7795468E-2,-1.7867089E-4],"split_indices":[9,7,9,2,1,0,7,0,4,4,0,7,0,0,0,0,0,0,0,0,0,0,0],"split_type":[0,0,0,0,0,0,0,0,0,0,0,0,0,0,0,0,0,0,0,0,0,0,0],"sum_hessian":[1.98E2,1.5E2,4.8E1,6E1,9E1,2.2E1,2.6E1,4E0,5.6E1,2.1E1,6.9E1,2.4E1,2E0,2E1,3.6E1,6E0,1.5E1,3.1E1,3.8E1,2E0,2.2E1,1E0,1E0],"tree_param":{"num_deleted":"0","num_feature":"10","num_nodes":"23","size_leaf_vector":"1"}},{"base_weights":[-1.1236735E-1,-7.500498E-1,1.8709095E0,-2.382895E0,7.402637E-2,1.1666272E-1,1.3306099E0,-4.863644E0,-5.0432193E-1,-4.5043957E-1,2.7900667E0,1.4611366E0,5.4238164E-1,-2.5975583E-2,-3.2833314E-1,-2.717822E-1,8.165585E-2,-2.2710864E-1,-6.90198E-4,2.2689973E-1,-5.2776677E-3,7.77727E-2,2.0409299E-2,3.6939383E-2,-6.081057E-3],"categories":[],"categories_nodes":[],"categories_segments":[],"categories_sizes":[],"default_left":[0,0,0,0,0,0,0,0,0,0,0,0,0,0,0,0,0,0,0,0,0,0,0,0,0],"id":29,"left_children":[1,3,5,7,9,-1,11,13,15,17,19,21,23,-1,-1,-1,-1,-1,-1,-1,-1,-1,-1,-1,-1],"loss_changes":[2.4422585E2,1.9663235E2,8.636169E0,2.259003E2,1.4085487E2,0E0,1.6767387E0,1.519494E2,3.1454858E2,1.4822481E2,8.146034E1,1.3513222E0,7.4192286E-1,0E0,0E0,0E0,0E0,0E0,0E0,0E0,0E0,0E0,0E0,0E0,0E0],"parents":[2147483647,0,0,1,1,2,2,3,3,4,4,6,6,7,7,8,8,9,9,10,10,11,11,12,12],"right_children":[2,4,6,8,10,-1,12,14,16,18,20,22,24,-1,-1,-1,-1,-1,-1,-1,-1,-1,-1,-1,-1],"split_conditions":[2.8348794E8,1.6267214E1,1.3439443E9,4.68E1,7.7E1,1.1666272E-1,1E1,5.136191E7,5.1751064E7,3.15E1,1.094E2,1.8804912E13,3.91E1,-2.5975583E-2,-3.2833314E-1,-2.717822E-1,8.165585E-2,-2.2710864E-1,-6.90198E-4,2.2689973E-1,-5.2776677E-3,7.77727E-2,2.0409299E-2,3.6939383E-2,-6.081057E-3],"split_indices":[9,7,9,4,4,0,6,9,9,1,4,8,1,0,0,0,0,0,0,0,0,0,0,0,0],"split_type":[0,0,0,0,0,0,0,0,0,0,0,0,0,0,0,0,0,0,0,0,0,0,0,0,0],"sum_hessian":[1.91E2,1.45E2,4.6E1,4.8E1,9.7E1,2.3E1,2.3E1,2E1,2.8E1,8.2E1,1.5E1,1.9E1,4E0,6E0,1.4E1,8E0,2E1,7E0,7.5E1,9E0,6E0,1.7E1,2E0,3E0,1E0],"tree_param":{"num_deleted":"0","num_feature":"10","num_nodes":"25","size_leaf_vector":"1"}},{"base_weights":[-1.8312305E-2,-1.6959429E0,7.7777743E-1,-2.7949831E0,1.5716407E0,-4.0765324E0,1.0705214E0,1.1886317E0,-3.8469007E0,8.2465045E-2,8.226967E-3,-6.34321E0,9.078334E-2,1.4816567E0,-2.7436705E0,-1.8500035E-1,1.3430539E-1,-3.6786428E-1,-1.1025303E-1,5.6571245E-2,-4.032211E-1,8.5828796E-2,-1.2443576E-1,1.8266149E-1,-2.5140318E-1],"categories":[],"categories_nodes":[],"categories_segments":[],"categories_sizes":[],"default_left":[0,0,0,0,0,0,0,0,0,0,0,0,0,0,0,0,0,0,0,0,0,0,0,0,0],"id":30,"left_children":[1,3,5,7,9,11,13,15,17,-1,-1,19,-1,21,23,-1,-1,-1,-1,-1,-1,-1,-1,-1,-1],"loss_changes":[2.697635E2,2.378211E2,1.9905054E2,2.0990387E2,1.5863075E0,1.183629E2,2.0792459E2,9.046543E1,2.0855286E2,0E0,0E0,8.631685E1,0E0,1.1433261E2,2.083381E2,0E0,0E0,0E0,0E0,0E0,0E0,0E0,0E0,0E0,0E0],"parents":[2147483647,0,0,1,1,2,2,3,3,4,4,5,5,6,6,7,7,8,8,11,11,13,13,14,14],"right_children":[2,4,6,8,10,12,14,16,18,-1,-1,20,-1,22,24,-1,-1,-1,-1,-1,-1,-1,-1,-1,-1],"split_conditions":[1.6267214E1,2.8348794E8,3.21E1,1.3303561E1,4.57E1,1.5801093E1,2.8E1,2.4190908E7,1.3890959E1,8.2465045E-2,8.226967E-3,3E1,9.078334E-2,2.02E1,1.58912325E1,-1.8500035E-1,1.3430539E-1,-3.6786428E-1,-1.1025303E-1,5.6571245E-2,-4.032211E-1,8.5828796E-2,-1.2443576E-1,1.8266149E-1,-2.5140318E-1],"split_indices":[7,9,1,7,1,0,5,9,7,0,0,1,0,2,0,0,0,0,0,0,0,0,0,0,0],"split_type":[0,0,0,0,0,0,0,0,0,0,0,0,0,0,0,0,0,0,0,0,0,0,0,0,0],"sum_hessian":[2E2,6.4E1,1.36E2,4.8E1,1.6E1,7E0,1.29E2,1E1,3.8E1,1.5E1,1E0,5E0,2E0,1.17E2,1.2E1,2E0,8E0,1.1E1,2.7E1,1E0,4E0,1.11E2,6E0,3E0,9E0],"tree_param":{"num_deleted":"0","num_feature":"10","num_nodes":"25","size_leaf_vector":"1"}},{"base_weights":[4.0940332E-1,-9.718775E-1,1.2881255E0,-2.3021164E0,2.198414E-1,-2.4726334E-1,1.831811E0,-5.092501E0,1.8481629E-1,-2.0640098E-1,1.0831324E0,-3.7784997E-1,4.9195236E-1,2.2250257E0,1.1418517E0,-7.6832585E-2,-3.0342025E-1,1.0464479E-1,-2.3080926E-1,7.2135784E-2,-2.7856755E-1,-3.456059E-1,6.3383795E-2,1.4574882E-1,8.5657254E-2,-4.3549776E-1,8.521646E-2],"categories":[],"categories_nodes":[],"categories_segments":[],"categories_sizes":[],"default_left":[0,0,0,0,0,0,0,0,0,0,0,0,0,0,0,0,0,0,0,0,0,0,0,0,0,0,0],"id":31,"left_children":[1,3,5,7,9,11,13,15,17,-1,19,-1,21,23,25,-1,-1,-1,-1,-1,-1,-1,-1,-1,-1,-1,-1],"loss_changes":[2.3672176E2,1.2098668E2,9.9790375E1,2.507631E2,1.583634E2,1.7662877E2,2.1333954E1,4.9667816E1,1.9287506E2,0E0,9.178734E1,0E0,1.8106767E2,1.4430725E1,2.0325296E2,0E0,0E0,0E0,0E0,0E0,0E0,0E0,0E0,0E0,0E0,0E0,0E0],"parents":[2147483647,0,0,1,1,2,2,3,3,4,4,5,5,6,6,7,7,8,8,10,10,12,12,13,13,14,14],"right_children":[2,4,6,8,10,12,14,16,18,-1,20,-1,22,24,26,-1,-1,-1,-1,-1,-1,-1,-1,-1,-1,-1,-1],"split_conditions":[1.3983496E12,1E0,1.2495891E1,1.6878904E1,2.4190908E7,5.167257E7,2.9E0,3.06E1,3.2E1,-2.0640098E-1,2.2938631E1,-3.7784997E-1,1.6267214E1,3.1604427E12,3E0,-7.6832585E-2,-3.0342025E-1,1.0464479E-1,-2.3080926E-1,7.2135784E-2,-2.7856755E-1,-3.456059E-1,6.3383795E-2,1.4574882E-1,8.5657254E-2,-4.3549776E-1,8.521646E-2],"split_indices":[8,6,0,7,9,9,2,1,5,0,7,0,7,8,2,0,0,0,0,0,0,0,0,0,0,0,0],"split_type":[0,0,0,0,0,0,0,0,0,0,0,0,0,0,0,0,0,0,0,0,0,0,0,0,0,0,0],"sum_hessian":[1.93E2,7.5E1,1.18E2,3.5E1,4E1,3.1E1,8.7E1,1.6E1,1.9E1,6E0,3.4E1,2E0,2.9E1,5.4E1,3.3E1,4E0,1.2E1,1.4E1,5E0,3.3E1,1E0,2E0,2.7E1,2.1E1,3.3E1,1E0,3.2E1],"tree_param":{"num_deleted":"0","num_feature":"10","num_nodes":"27","size_leaf_vector":"1"}},{"base_weights":[-9.6204385E-2,-7.340983E-1,1.8194015E0,-1.2633309E0,1.424943E0,1.03754595E-1,1.1463662E0,-9.520898E-1,-4.146853E-1,-2.4877963E0,2.9608388E0,4.3411732E-1,6.386689E-2,3.137754E-2,-7.900669E-2,-2.0195532E-1,9.805961E-2,2.1518138E-1,9.430646E-2,2.5013892E-2,5.890894E-3],"categories":[],"categories_nodes":[],"categories_segments":[],"categories_sizes":[],"default_left":[0,0,0,0,0,0,0,0,0,0,0,0,0,0,0,0,0,0,0,0,0],"id":32,"left_children":[1,3,5,7,9,-1,11,13,-1,15,17,19,-1,-1,-1,-1,-1,-1,-1,-1,-1],"loss_changes":[2.4450435E2,1.731954E2,6.2256165E0,2.5686877E2,1.876528E2,0E0,9.3803406E-1,1.1706539E2,0E0,7.003729E1,2.363115E1,2.4764478E-2,0E0,0E0,0E0,0E0,0E0,0E0,0E0,0E0,0E0],"parents":[2147483647,0,0,1,1,2,2,3,3,4,4,6,6,7,7,9,9,10,10,11,11],"right_children":[2,4,6,8,10,-1,12,14,-1,16,18,20,-1,-1,-1,-1,-1,-1,-1,-1,-1],"split_conditions":[2.8572125E8,7.78E1,1.40276E9,7.45E1,1.4016394E1,1.03754595E-1,1.4921096E1,5.321917E7,-4.146853E-1,1.693849E8,3.57E1,4.4E1,6.386689E-2,3.137754E-2,-7.900669E-2,-2.0195532E-1,9.805961E-2,2.1518138E-1,9.430646E-2,2.5013892E-2,5.890894E-3],"split_indices":[9,4,9,4,7,0,7,9,0,9,1,1,0,0,0,0,0,0,0,0,0],"split_type":[0,0,0,0,0,0,0,0,0,0,0,0,0,0,0,0,0,0,0,0,0],"sum_hessian":[1.98E2,1.49E2,4.9E1,1.2E2,2.9E1,3.4E1,1.5E1,1.16E2,4E0,8E0,2.1E1,3E0,1.2E1,3.3E1,8.3E1,6E0,2E0,8E0,1.3E1,2E0,1E0],"tree_param":{"num_deleted":"0","num_feature":"10","num_nodes":"21","size_leaf_vector":"1"}},{"base_weights":[-1.8069091E-1,-1.4133956E0,1.0161217E0,-1.1335026E0,-4.8094732E-1,-2.1493814E0,1.4410633E0,1.3650889E0,-1.8812181E0,1.6438477E-1,-5.2788815E0,-2.8486535E-1,1.6760521E0,1.5748285E-1,-1.075806E-1,-4.4968125E-1,-7.2082035E-2,-4.2231828E-1,9.679795E-6,2.1300645E-1,7.306479E-2],"categories":[],"categories_nodes":[],"categories_segments":[],"categories_sizes":[],"default_left":[0,0,0,0,0,0,0,0,0,0,0,0,0,0,0,0,0,0,0,0,0],"id":33,"left_children":[1,3,5,7,-1,9,11,13,15,-1,17,-1,19,-1,-1,-1,-1,-1,-1,-1,-1],"loss_changes":[2.8469696E2,2.0728111E2,1.3492249E2,1.7631395E2,0E0,2.2153937E2,1.5548601E2,1.4484427E2,2.1213907E2,0E0,1.337727E2,0E0,4.094516E1,0E0,0E0,0E0,0E0,0E0,0E0,0E0,0E0],"parents":[2147483647,0,0,1,1,2,2,3,3,5,5,6,6,7,7,8,8,10,10,12,12],"right_children":[2,4,6,8,-1,10,12,14,16,-1,18,-1,20,-1,-1,-1,-1,-1,-1,-1,-1],"split_conditions":[1.7440702E12,1.7101968E12,1.1141096E1,1.5903835E1,-4.8094732E-1,6.092E2,3.15E1,2.1438356E1,1.6395342E1,1.6438477E-1,2.0716986E1,-2.8486535E-1,1.1644262E1,1.5748285E-1,-1.075806E-1,-4.4968125E-1,-7.2082035E-2,-4.2231828E-1,9.679795E-6,2.1300645E-1,7.306479E-2],"split_indices":[8,8,0,0,0,3,1,7,0,0,7,0,0,0,0,0,0,0,0,0,0],"split_type":[0,0,0,0,0,0,0,0,0,0,0,0,0,0,0,0,0,0,0,0,0],"sum_hessian":[1.91E2,9.4E1,9.7E1,9.2E1,2E0,1.1E1,8.6E1,2.1E1,7.1E1,4E0,7E0,2E0,8.4E1,1.4E1,7E0,3E0,6.8E1,4E0,3E0,5E0,7.9E1],"tree_param":{"num_deleted":"0","num_feature":"10","num_nodes":"21","size_leaf_vector":"1"}},{"base_weights":[1.0100739E-1,-1.0898749E0,8.284808E-1,-3.3036382E0,-3.1931454E-1,-1.8049042E0,1.4319088E0,2.9629278E-1,-5.9487057E0,-3.9773903E0,2.844389E-1,-1.5649472E-1,-6.4493155E0,2.4574432E0,5.668005E-1,1.4059445E-1,-1.13928095E-1,-1.1305573E-1,-4.322423E-1,1.2355848E-1,-2.6258186E-1,1.705275E-1,-4.6958603E-2,2.564911E-1,-1.6135691E-1,1.1776693E-1,-4.3406573E-1,1.6207202E-1,7.452359E-2,-3.5749197E-1,5.7474412E-2],"categories":[],"categories_nodes":[],"categories_segments":[],"categories_sizes":[],"default_left":[0,0,0,0,0,0,0,0,0,0,0,0,0,0,0,0,0,0,0,0,0,0,0,0,0,0,0,0,0,0,0],"id":34,"left_children":[1,3,5,7,9,11,13,15,17,19,21,23,25,27,29,-1,-1,-1,-1,-1,-1,-1,-1,-1,-1,-1,-1,-1,-1,-1,-1],"loss_changes":[1.6897198E2,1.2517713E2,1.9486053E2,1.8268169E2,1.2481156E2,1.7507623E2,8.643976E1,6.470271E1,8.98179E1,7.871415E1,1.9063513E2,3.087377E2,1.383593E2,2.9283356E1,2.5552019E2,0E0,0E0,0E0,0E0,0E0,0E0,0E0,0E0,0E0,0E0,0E0,0E0,0E0,0E0,0E0,0E0],"parents":[2147483647,0,0,1,1,2,2,3,3,4,4,5,5,6,6,7,7,8,8,9,9,10,10,11,11,12,12,13,13,14,14],"right_children":[2,4,6,8,10,12,14,16,18,20,22,24,26,28,30,-1,-1,-1,-1,-1,-1,-1,-1,-1,-1,-1,-1,-1,-1,-1,-1],"split_conditions":[1.3983496E12,1.3908219E1,1.1703006E1,1.3303561E1,-2.4E0,3.49E1,8.672E2,2.6726849E1,5.425246E7,3.17E1,1.8076439E1,2.0267124E1,4.513E2,3.2852957E8,9.139E2,1.4059445E-1,-1.13928095E-1,-1.1305573E-1,-4.322423E-1,1.2355848E-1,-2.6258186E-1,1.705275E-1,-4.6958603E-2,2.564911E-1,-1.6135691E-1,1.1776693E-1,-4.3406573E-1,1.6207202E-1,7.452359E-2,-3.5749197E-1,5.7474412E-2],"split_indices":[8,7,0,7,2,1,3,0,9,1,0,7,3,9,3,0,0,0,0,0,0,0,0,0,0,0,0,0,0,0,0],"split_type":[0,0,0,0,0,0,0,0,0,0,0,0,0,0,0,0,0,0,0,0,0,0,0,0,0,0,0,0,0,0,0],"sum_hessian":[1.93E2,7.3E1,1.2E2,1.8E1,5.5E1,2.2E1,9.8E1,8E0,1E1,7E0,4.8E1,1.7E1,5E0,4.4E1,5.4E1,4E0,4E0,5E0,5E0,1E0,6E0,1.3E1,3.5E1,6E0,1.1E1,1E0,4E0,2.3E1,2.1E1,3E0,5.1E1],"tree_param":{"num_deleted":"0","num_feature":"10","num_nodes":"31","size_leaf_vector":"1"}},{"base_weights":[-1.6090249E-1,-1.8374922E0,5.9785956E-1,-2.9549365E0,8.356531E-3,-2.944863E0,1.2035198E0,-1.1689897E0,-5.6154556E0,1.1883743E0,-2.3566929E-1,1.860701E-1,-6.0944033E0,2.003378E0,7.723791E-1,-1.388356E-1,1.19677186E-1,4.6932448E-2,-3.6661014E-1,8.978736E-2,-2.5879282E-1,2.275152E-1,-1.00965284E-1,-3.7192047E-1,1.5004133E-1,-6.177333E-2,1.19878404E-1,-3.8660458E-1,5.5112977E-2],"categories":[],"categories_nodes":[],"categories_segments":[],"categories_sizes":[],"default_left":[0,0,0,0,0,0,0,0,0,0,0,0,0,0,0,0,0,0,0,0,0,0,0,0,0,0,0,0,0],"id":35,"left_children":[1,3,5,7,9,11,13,15,17,19,-1,21,23,25,27,-1,-1,-1,-1,-1,-1,-1,-1,-1,-1,-1,-1,-1,-1],"loss_changes":[2.4916444E2,1.2584531E2,2.9321185E2,1.739943E2,1.39323E2,1.9835397E2,3.84554E1,1.4410771E2,1.7565842E2,8.660376E1,0E0,1.15060974E2,1.445618E2,5.403093E1,2.2454306E2,0E0,0E0,0E0,0E0,0E0,0E0,0E0,0E0,0E0,0E0,0E0,0E0,0E0,0E0],"parents":[2147483647,0,0,1,1,2,2,3,3,4,4,5,5,6,6,7,7,8,8,9,9,11,11,12,12,13,13,14,14],"right_children":[2,4,6,8,10,12,14,16,18,20,-1,22,24,26,28,-1,-1,-1,-1,-1,-1,-1,-1,-1,-1,-1,-1,-1,-1],"split_conditions":[9.3187736E11,3.58E1,1.1703006E1,4.3741535E11,1.21E2,3.3E1,3.56E1,1.6115343E1,4.49E1,2.8516987E1,-2.3566929E-1,2.0267124E1,1.1628E3,3.14E1,3.57E1,-1.388356E-1,1.19677186E-1,4.6932448E-2,-3.6661014E-1,8.978736E-2,-2.5879282E-1,2.275152E-1,-1.00965284E-1,-3.7192047E-1,1.5004133E-1,-6.177333E-2,1.19878404E-1,-3.8660458E-1,5.5112977E-2],"split_indices":[8,1,0,8,5,1,1,7,4,0,0,7,3,1,1,0,0,0,0,0,0,0,0,0,0,0,0,0,0],"split_type":[0,0,0,0,0,0,0,0,0,0,0,0,0,0,0,0,0,0,0,0,0,0,0,0,0,0,0,0,0],"sum_hessian":[1.94E2,6E1,1.34E2,3.7E1,2.3E1,1.9E1,1.15E2,2.3E1,1.4E1,1.9E1,4E0,1E1,9E0,3.9E1,7.6E1,1.6E1,7E0,3E0,1.1E1,1.8E1,1E0,3E0,7E0,8E0,1E0,4E0,3.5E1,2E0,7.4E1],"tree_param":{"num_deleted":"0","num_feature":"10","num_nodes":"29","size_leaf_vector":"1"}},{"base_weights":[-8.828402E-2,-3.5214415E0,2.694334E-1,9.492585E-1,-5.835896E0,-9.1548306E-1,1.322626E0,3.2703736E0,-3.244358E-1,-4.0640947E-1,7.8073764E-1,-2.9107265E0,3.54385E-1,-1.5863667E0,1.4728799E0,2.7104998E-2,1.8538043E-1,-2.5424168E-1,2.2154362E-1,1.3826068E-1,-2.305299E-1,-9.353562E-2,1.05344854E-1,1.0375788E-1,-4.058116E-1,1.4335325E-1,5.735643E-2],"categories":[],"categories_nodes":[],"categories_segments":[],"categories_sizes":[],"default_left":[0,0,0,0,0,0,0,0,0,0,0,0,0,0,0,0,0,0,0,0,0,0,0,0,0,0,0],"id":36,"left_children":[1,3,5,7,9,11,13,15,-1,-1,17,19,21,23,25,-1,-1,-1,-1,-1,-1,-1,-1,-1,-1,-1,-1],"loss_changes":[2.3428784E2,1.9179E2,2.1710538E2,1.4207129E2,1.8835318E2,2.0879457E2,4.254857E1,5.147476E0,0E0,0E0,1.0817076E2,3.2149713E2,2.028164E2,1.3638876E2,3.6676956E1,0E0,0E0,0E0,0E0,0E0,0E0,0E0,0E0,0E0,0E0,0E0,0E0],"parents":[2147483647,0,0,1,1,2,2,3,3,4,4,5,5,6,6,7,7,10,10,11,11,12,12,13,13,14,14],"right_children":[2,4,6,8,10,12,14,16,-1,-1,18,20,22,24,26,-1,-1,-1,-1,-1,-1,-1,-1,-1,-1,-1,-1],"split_conditions":[1.1703006E1,2.62E1,1.4612449E12,1.144E1,3.500906E12,4.06E1,2.7194286E7,5.6772604E0,-3.244358E-1,-4.0640947E-1,-1.32E1,1.5519452E1,3E0,1.6895891E1,1.8732882E12,2.7104998E-2,1.8538043E-1,-2.5424168E-1,2.2154362E-1,1.3826068E-1,-2.305299E-1,-9.353562E-2,1.05344854E-1,1.0375788E-1,-4.058116E-1,1.4335325E-1,5.735643E-2],"split_indices":[0,4,8,0,8,4,9,0,0,0,2,0,5,0,8,0,0,0,0,0,0,0,0,0,0,0,0],"split_type":[0,0,0,0,0,0,0,0,0,0,0,0,0,0,0,0,0,0,0,0,0,0,0,0,0,0,0],"sum_hessian":[1.89E2,1.7E1,1.72E2,6E0,1.1E1,8.1E1,9.1E1,5E0,1E0,8E0,3E0,3.1E1,5E1,4E0,8.7E1,1E0,4E0,1E0,2E0,7E0,2.4E1,2.2E1,2.8E1,3E0,1E0,1.5E1,7.2E1],"tree_param":{"num_deleted":"0","num_feature":"10","num_nodes":"27","size_leaf_vector":"1"}},{"base_weights":[-1.1354792E-1,-1.7858226E0,5.6099117E-1,-1.1987276E0,-3.767223E-1,-7.8419876E-1,1.3255271E0,-3.4520712E0,-3.5909843E-1,-3.5556245E0,2.574896E-1,-2.9865582E0,1.510676E0,1.5876876E-1,-2.1030672E-1,1.3698892E-1,-6.235943E-2,9.881329E-2,-3.4242412E-1,4.335542E-2,-3.571883E-1,-2.077188E-1,1.2922383E-2,2.2743276E-1,6.5350525E-2],"categories":[],"categories_nodes":[],"categories_segments":[],"categories_sizes":[],"default_left":[0,0,0,0,0,0,0,0,0,0,0,0,0,0,0,0,0,0,0,0,0,0,0,0,0],"id":37,"left_children":[1,3,5,7,-1,9,11,13,15,17,19,21,23,-1,-1,-1,-1,-1,-1,-1,-1,-1,-1,-1,-1],"loss_changes":[2.1983665E2,1.7996758E2,1.4399347E2,9.7142975E1,0E0,1.481506E2,7.556738E1,8.332123E1,1.10748215E2,2.6855457E2,1.776483E2,1.623199E1,4.7265762E1,0E0,0E0,0E0,0E0,0E0,0E0,0E0,0E0,0E0,0E0,0E0,0E0],"parents":[2147483647,0,0,1,1,2,2,3,3,5,5,6,6,7,7,8,8,9,9,10,10,11,11,12,12],"right_children":[2,4,6,8,-1,10,12,14,16,18,20,22,24,-1,-1,-1,-1,-1,-1,-1,-1,-1,-1,-1,-1],"split_conditions":[6.469503E11,1.954437E8,8.338468E7,1.3908219E1,-3.767223E-1,3.4E1,3.07E1,2.89E1,1.7510685E1,1.144E1,8.309296E7,-3E-1,1.0422715E12,1.5876876E-1,-2.1030672E-1,1.3698892E-1,-6.235943E-2,9.881329E-2,-3.4242412E-1,4.335542E-2,-3.571883E-1,-2.077188E-1,1.2922383E-2,2.2743276E-1,6.5350525E-2],"split_indices":[8,9,9,7,0,1,1,1,0,0,9,2,8,0,0,0,0,0,0,0,0,0,0,0,0],"split_type":[0,0,0,0,0,0,0,0,0,0,0,0,0,0,0,0,0,0,0,0,0,0,0,0,0],"sum_hessian":[1.93E2,5.5E1,1.38E2,5.1E1,4E0,5E1,8.8E1,1.3E1,3.8E1,1.3E1,3.7E1,3E0,8.5E1,1E0,1.2E1,8E0,3E1,5E0,8E0,3.5E1,2E0,2E0,1E0,4E0,8.1E1],"tree_param":{"num_deleted":"0","num_feature":"10","num_nodes":"25","size_leaf_vector":"1"}},{"base_weights":[4.662029E-2,-9.711869E-1,9.2427135E-1,-6.8719304E-1,-4.394307E-1,1.3589065E0,-4.6876112E-1,-2.0903265E0,8.32526E-1,-8.4495157E-1,1.8542027E0,-4.91808E0,8.8947254E-1,6.132978E-2,-1.536532E-1,-9.553459E-2,1.06406525E-1,-1.2283271E-1,9.910223E-2,2.0337439E-1,6.845057E-2,8.5427575E-2,-3.2925582E-1,-2.1052782E-1,6.897517E-2],"categories":[],"categories_nodes":[],"categories_segments":[],"categories_sizes":[],"default_left":[0,0,0,0,0,0,0,0,0,0,0,0,0,0,0,0,0,0,0,0,0,0,0,0,0],"id":38,"left_children":[1,3,5,7,-1,9,11,13,15,17,19,21,23,-1,-1,-1,-1,-1,-1,-1,-1,-1,-1,-1,-1],"loss_changes":[1.6972746E2,1.893294E2,6.2394012E1,1.8512396E2,0E0,8.670862E1,1.5545486E2,1.5045428E2,1.5333945E2,7.321335E1,6.3159042E1,7.753204E1,5.579191E1,0E0,0E0,0E0,0E0,0E0,0E0,0E0,0E0,0E0,0E0,0E0,0E0],"parents":[2147483647,0,0,1,1,2,2,3,3,5,5,6,6,7,7,8,8,9,9,10,10,11,11,12,12],"right_children":[2,4,6,8,-1,10,12,14,16,18,20,22,24,-1,-1,-1,-1,-1,-1,-1,-1,-1,-1,-1,-1],"split_conditions":[1.7440702E12,1.7101968E12,2.0689316E1,3.58E1,-4.394307E-1,-1.32E1,3.22E1,3.1867883E11,3.75E1,7.58E1,-9.5E0,-2.05E1,2.0725206E1,6.132978E-2,-1.536532E-1,-9.553459E-2,1.06406525E-1,-1.2283271E-1,9.910223E-2,2.0337439E-1,6.845057E-2,8.5427575E-2,-3.2925582E-1,-2.1052782E-1,6.897517E-2],"split_indices":[8,8,7,1,0,2,1,8,4,4,2,2,7,0,0,0,0,0,0,0,0,0,0,0,0],"split_type":[0,0,0,0,0,0,0,0,0,0,0,0,0,0,0,0,0,0,0,0,0,0,0,0,0],"sum_hessian":[1.88E2,8.7E1,1.01E2,8.5E1,2E0,7.7E1,2.4E1,4.4E1,4.1E1,1.4E1,6.3E1,5E0,1.9E1,1E1,3.4E1,1.3E1,2.8E1,9E0,5E0,1E1,5.3E1,1E0,4E0,1E0,1.8E1],"tree_param":{"num_deleted":"0","num_feature":"10","num_nodes":"25","size_leaf_vector":"1"}},{"base_weights":[1.8273476E-1,-1.2648147E0,5.113996E-1,2.3145665E-1,-4.686473E0,-3.2388446E0,7.330049E-1,-1.7516365E0,2.349291E0,2.0318565E0,-3.7299144E-1,1.1458416E-1,-4.216621E0,9.9750954E-1,-2.1311982E0,1.4628457E-1,-1.6466217E-1,1.961007E-1,2.2047766E-2,2.863493E-2,1.16367154E-1,-2.8115296E-1,8.9796384E-5,1.7207243E-1,4.0016215E-2,-2.6958475E-1,2.9028708E-2],"categories":[],"categories_nodes":[],"categories_segments":[],"categories_sizes":[],"default_left":[0,0,0,0,0,0,0,0,0,0,0,0,0,0,0,0,0,0,0,0,0,0,0,0,0,0,0],"id":39,"left_children":[1,3,5,7,9,11,13,15,17,19,-1,-1,21,23,25,-1,-1,-1,-1,-1,-1,-1,-1,-1,-1,-1,-1],"loss_changes":[9.246825E1,1.8539497E2,1.3368379E2,1.13311554E2,2.201128E2,5.8331734E1,1.1576512E2,1.1058342E2,3.7287247E1,3.9178085E-1,0E0,0E0,4.7473648E1,6.374913E1,1.180727E2,0E0,0E0,0E0,0E0,0E0,0E0,0E0,0E0,0E0,0E0,0E0,0E0],"parents":[2147483647,0,0,1,1,2,2,3,3,4,4,5,5,6,6,7,7,8,8,9,9,12,12,13,13,14,14],"right_children":[2,4,6,8,10,12,14,16,18,20,-1,-1,22,24,26,-1,-1,-1,-1,-1,-1,-1,-1,-1,-1,-1,-1],"split_conditions":[3.33E1,2.055452E1,1.82E1,1.7466848E1,2.41E1,3.42E1,2.11E1,1.3303561E1,1.5903835E1,5.6772604E0,-3.7299144E-1,1.1458416E-1,4.51E1,3.39E1,2E0,1.4628457E-1,-1.6466217E-1,1.961007E-1,2.2047766E-2,2.863493E-2,1.16367154E-1,-2.8115296E-1,8.9796384E-5,1.7207243E-1,4.0016215E-2,-2.6958475E-1,2.9028708E-2],"split_indices":[1,7,4,7,4,1,2,7,0,0,0,0,1,1,5,0,0,0,0,0,0,0,0,0,0,0,0],"split_type":[0,0,0,0,0,0,0,0,0,0,0,0,0,0,0,0,0,0,0,0,0,0,0,0,0,0,0],"sum_hessian":[1.92E2,3.5E1,1.57E2,2.5E1,1E1,8E0,1.49E2,1.3E1,1.2E1,3E0,7E0,1E0,7E0,1.37E2,1.2E1,3E0,1E1,6E0,6E0,1E0,2E0,5E0,2E0,9E0,1.28E2,5E0,7E0],"tree_param":{"num_deleted":"0","num_feature":"10","num_nodes":"27","size_leaf_vector":"1"}},{"base_weights":[2.905934E-1,-1.1576916E0,8.9270765E-1,-2.3519766E0,2.7398688E-1,1.9318757E0,2.7871248E-1,1.0311861E0,-3.4753096E0,-2.8920395E0,1.4259973E0,-2.921182E-1,2.7027342E0,-2.5677552E0,8.606512E-1,-1.5743437E-1,2.0844238E-1,2.817083E-2,-2.698805E-1,1.4869736E-1,-2.1826808E-1,-1.5150122E-1,1.06423594E-1,-2.9028508E-1,6.1907124E-2,1.5119193E-1,6.2051296E-2,7.6781824E-2,-1.9132327E-1,1.4265214E-1,-4.5134686E-3],"categories":[],"categories_nodes":[],"categories_segments":[],"categories_sizes":[],"default_left":[0,0,0,0,0,0,0,0,0,0,0,0,0,0,0,0,0,0,0,0,0,0,0,0,0,0,0,0,0,0,0],"id":40,"left_children":[1,3,5,7,9,11,13,15,17,19,21,23,25,27,29,-1,-1,-1,-1,-1,-1,-1,-1,-1,-1,-1,-1,-1,-1,-1,-1],"loss_changes":[1.5712738E2,9.126553E1,8.0493164E1,1.1379582E2,9.530642E1,8.1365616E1,1.3638399E2,1.1804662E2,1.7384125E2,7.347978E1,6.592392E1,1.1687213E2,1.2674988E1,7.818579E1,1.2909077E2,0E0,0E0,0E0,0E0,0E0,0E0,0E0,0E0,0E0,0E0,0E0,0E0,0E0,0E0,0E0,0E0],"parents":[2147483647,0,0,1,1,2,2,3,3,4,4,5,5,6,6,7,7,8,8,9,9,10,10,11,11,12,12,13,13,14,14],"right_children":[2,4,6,8,10,12,14,16,18,20,22,24,26,28,30,-1,-1,-1,-1,-1,-1,-1,-1,-1,-1,-1,-1,-1,-1,-1,-1],"split_conditions":[6.469503E11,3.58E1,7.55E2,1.7510685E1,7.23E1,1.562137E1,3.75E1,4.06E1,3.1867883E11,3.8E0,1.3616713E1,1.0756987E1,6.32E1,-5.1E0,1.8242514E12,-1.5743437E-1,2.0844238E-1,2.817083E-2,-2.698805E-1,1.4869736E-1,-2.1826808E-1,-1.5150122E-1,1.06423594E-1,-2.9028508E-1,6.1907124E-2,1.5119193E-1,6.2051296E-2,7.6781824E-2,-1.9132327E-1,1.4265214E-1,-4.5134686E-3],"split_indices":[8,1,3,0,3,7,4,4,8,2,7,0,4,2,8,0,0,0,0,0,0,0,0,0,0,0,0,0,0,0,0],"split_type":[0,0,0,0,0,0,0,0,0,0,0,0,0,0,0,0,0,0,0,0,0,0,0,0,0,0,0,0,0,0,0],"sum_hessian":[1.78E2,5.2E1,1.26E2,2.8E1,2.4E1,4.6E1,8E1,7E0,2.1E1,6E0,1.8E1,1.2E1,3.4E1,1.3E1,6.7E1,3E0,4E0,7E0,1.4E1,1E0,5E0,2E0,1.6E1,2E0,1E1,2.7E1,7E0,3E0,1E1,2.1E1,4.6E1],"tree_param":{"num_deleted":"0","num_feature":"10","num_nodes":"31","size_leaf_vector":"1"}},{"base_weights":[5.4076932E-2,-1.2145154E0,6.040245E-1,-3.3875086E0,-5.8763397E-1,-2.9746494E0,7.3500437E-1,1.4890492E-1,-4.1661506E0,8.185868E-2,-3.861643E0,-2.6859185E-1,2.0704396E-2,1.57969E0,3.8939327E-1,-2.9144564E-1,-1.07288085E-1,-9.6918374E-2,1.0995016E-1,-2.939056E-1,7.292538E-2,-2.9067698E-1,9.6831486E-2,-2.2421573E-1,3.2645017E-2],"categories":[],"categories_nodes":[],"categories_segments":[],"categories_sizes":[],"default_left":[0,0,0,0,0,0,0,0,0,0,0,0,0,0,0,0,0,0,0,0,0,0,0,0,0],"id":41,"left_children":[1,3,5,7,9,11,13,-1,15,17,19,-1,-1,21,23,-1,-1,-1,-1,-1,-1,-1,-1,-1,-1],"loss_changes":[1.3607948E2,7.837972E1,6.593425E1,7.68421E1,1.03336586E2,4.2841602E1,3.792E1,0E0,2.7805664E1,1.7534691E2,9.439659E1,0E0,0E0,1.11538284E2,1.2493217E2,0E0,0E0,0E0,0E0,0E0,0E0,0E0,0E0,0E0,0E0],"parents":[2147483647,0,0,1,1,2,2,3,3,4,4,5,5,6,6,8,8,9,9,10,10,13,13,14,14],"right_children":[2,4,6,8,10,12,14,-1,16,18,20,-1,-1,22,24,-1,-1,-1,-1,-1,-1,-1,-1,-1,-1],"split_conditions":[1.1122335E12,1.3824043E1,3.01E1,2.89E1,2.05E1,-1.02E1,1.8326414E12,1.4890492E-1,2.01E1,1.0381E3,3.57E1,-2.6859185E-1,2.0704396E-2,3.583E2,1.8753883E12,-2.9144564E-1,-1.07288085E-1,-9.6918374E-2,1.0995016E-1,-2.939056E-1,7.292538E-2,-2.9067698E-1,9.6831486E-2,-2.2421573E-1,3.2645017E-2],"split_indices":[8,7,1,1,2,2,8,0,2,3,1,0,0,3,8,0,0,0,0,0,0,0,0,0,0],"split_type":[0,0,0,0,0,0,0,0,0,0,0,0,0,0,0,0,0,0,0,0,0,0,0,0,0],"sum_hessian":[1.93E2,5.8E1,1.35E2,1.2E1,4.6E1,4E0,1.31E2,1E0,1.1E1,3.9E1,7E0,2E0,2E0,3.7E1,9.4E1,5E0,6E0,2E1,1.9E1,5E0,2E0,1E0,3.6E1,4E0,9E1],"tree_param":{"num_deleted":"0","num_feature":"10","num_nodes":"25","size_leaf_vector":"1"}},{"base_weights":[4.3454647E-2,-9.983313E-1,7.643197E-1,-6.899681E-1,-3.3809158E-1,-3.6227953E0,1.0340989E0,1.2553556E0,-1.6312596E0,-7.610767E-1,-2.7894077E-1,2.2154176E-1,8.3207506E-1,-2.0661144E-1,1.068873E-1,-1.5875614E-1,1.8326927E-2,1.4740288E-1,-1.4900704E-1,-9.769531E-2,5.2440006E-2],"categories":[],"categories_nodes":[],"categories_segments":[],"categories_sizes":[],"default_left":[0,0,0,0,0,0,0,0,0,0,0,0,0,0,0,0,0,0,0,0,0],"id":42,"left_children":[1,3,5,7,-1,9,11,13,15,17,-1,-1,19,-1,-1,-1,-1,-1,-1,-1,-1],"loss_changes":[1.487075E2,1.3929192E2,1.4222192E2,1.4487491E2,0E0,3.493714E1,7.2483795E1,1.3243642E2,1.6463312E2,4.170885E1,0E0,0E0,6.6051186E1,0E0,0E0,0E0,0E0,0E0,0E0,0E0,0E0],"parents":[2147483647,0,0,1,1,2,2,3,3,5,5,6,6,7,7,8,8,9,9,12,12],"right_children":[2,4,6,8,-1,10,12,14,16,18,-1,-1,20,-1,-1,-1,-1,-1,-1,-1,-1],"split_conditions":[8.234867E7,3.1604427E12,1.82E1,1.5329782E1,-3.3809158E-1,4.3E0,8.349125E7,-1.75E1,5.49E1,3.8E0,-2.7894077E-1,2.2154176E-1,1.0756987E1,-2.0661144E-1,1.068873E-1,-1.5875614E-1,1.8326927E-2,1.4740288E-1,-1.4900704E-1,-9.769531E-2,5.2440006E-2],"split_indices":[9,8,4,0,0,4,9,2,4,2,0,0,0,0,0,0,0,0,0,0,0],"split_type":[0,0,0,0,0,0,0,0,0,0,0,0,0,0,0,0,0,0,0,0,0],"sum_hessian":[1.96E2,8E1,1.16E2,7.7E1,3E0,6E0,1.1E2,2.5E1,5.2E1,3E0,3E0,5E0,1.05E2,3E0,2.2E1,2.9E1,2.3E1,1E0,2E0,7E0,9.8E1],"tree_param":{"num_deleted":"0","num_feature":"10","num_nodes":"21","size_leaf_vector":"1"}},{"base_weights":[-1.4130338E-1,-5.909439E-1,1.2288545E0,-9.3753076E-1,7.5856507E-1,1.4870205E0,3.9954728E-1,-6.5256107E-1,-5.403823E0,-2.031304E0,1.5093858E0,1.4014982E-1,1.3317363E0,1.5180206E-1,3.8278963E-2,-1.8470434E-2,-1.9417493E-1,6.3414454E-2,-3.3636114E-1,-1.9758841E-1,9.232857E-2,1.2378792E-1,2.7194067E-3,1.2951422E-2,7.5094335E-2,-6.9285715E-3,1.2728092E-2],"categories":[],"categories_nodes":[],"categories_segments":[],"categories_sizes":[],"default_left":[0,0,0,0,0,0,0,0,0,0,0,0,0,0,0,0,0,0,0,0,0,0,0,0,0,0,0],"id":43,"left_children":[1,3,5,7,9,11,13,15,17,19,21,-1,23,25,-1,-1,-1,-1,-1,-1,-1,-1,-1,-1,-1,-1,-1],"loss_changes":[1.2209366E2,7.0401764E1,9.896713E0,1.4793185E2,6.800146E1,3.8281097E0,1.0626583E0,1.0194318E2,7.034119E1,5.9428467E1,3.501709E1,0E0,5.999222E0,3.038234E-1,0E0,0E0,0E0,0E0,0E0,0E0,0E0,0E0,0E0,0E0,0E0,0E0,0E0],"parents":[2147483647,0,0,1,1,2,2,3,3,4,4,5,5,6,6,7,7,8,8,9,9,10,10,12,12,13,13],"right_children":[2,4,6,8,10,12,14,16,18,20,22,-1,24,26,-1,-1,-1,-1,-1,-1,-1,-1,-1,-1,-1,-1,-1],"split_conditions":[4.0554332E12,7.89E1,1.3890303E9,7.45E1,1.4016394E1,1.1837809E1,1.1161E3,3.1604427E12,1.2090685E1,1.693849E8,1.231E2,1.4014982E-1,5.1542937E12,1.3631507E1,3.8278963E-2,-1.8470434E-2,-1.9417493E-1,6.3414454E-2,-3.3636114E-1,-1.9758841E-1,9.232857E-2,1.2378792E-1,2.7194067E-3,1.2951422E-2,7.5094335E-2,-6.9285715E-3,1.2728092E-2],"split_indices":[8,4,9,4,7,0,3,8,0,9,4,0,8,7,0,0,0,0,0,0,0,0,0,0,0,0,0],"split_type":[0,0,0,0,0,0,0,0,0,0,0,0,0,0,0,0,0,0,0,0,0,0,0,0,0,0,0],"sum_hessian":[1.96E2,1.48E2,4.8E1,1.18E2,3E1,3.6E1,1.2E1,1.12E2,6E0,6E0,2.4E1,2E0,3.4E1,8E0,4E0,1.04E2,8E0,1E0,5E0,4E0,2E0,1.4E1,1E1,5E0,2.9E1,2E0,6E0],"tree_param":{"num_deleted":"0","num_feature":"10","num_nodes":"27","size_leaf_vector":"1"}},{"base_weights":[7.810078E-2,-9.442217E-1,8.1572163E-1,-5.022379E-1,-3.0821607E-1,-5.58043E-2,1.48814E0,-1.1549487E0,2.0985737E0,5.444822E-1,-4.3485565E0,1.8330148E0,4.8769838E-1,-4.4183515E-2,-4.2222738E-1,1.9665526E-1,6.56091E-2,-4.1702505E-2,6.9614045E-2,-3.422375E-1,2.146101E-2,6.3316287E-3,1.072008E-1,3.428046E-2,-3.322109E-2],"categories":[],"categories_nodes":[],"categories_segments":[],"categories_sizes":[],"default_left":[0,0,0,0,0,0,0,0,0,0,0,0,0,0,0,0,0,0,0,0,0,0,0,0,0],"id":44,"left_children":[1,3,5,7,-1,9,11,13,15,17,19,21,23,-1,-1,-1,-1,-1,-1,-1,-1,-1,-1,-1,-1],"loss_changes":[1.4027621E2,1.7686557E2,6.337429E1,1.2634692E2,0E0,1.2605801E2,2.0152695E1,1.09210945E2,1.6478958E1,5.1416103E1,7.4495445E1,2.3609406E1,4.3318224E0,0E0,0E0,0E0,0E0,0E0,0E0,0E0,0E0,0E0,0E0,0E0,0E0],"parents":[2147483647,0,0,1,1,2,2,3,3,5,5,6,6,7,7,8,8,9,9,10,10,11,11,12,12],"right_children":[2,4,6,8,-1,10,12,14,16,18,20,22,24,-1,-1,-1,-1,-1,-1,-1,-1,-1,-1,-1,-1],"split_conditions":[2E0,2.6978355E1,1.708548E1,2.0866085E8,-3.0821607E-1,1.669071E1,3.4178486E8,2.0745546E8,2.6734666E8,1.3890959E1,1.6909315E1,3.583E2,2.6674591E1,-4.4183515E-2,-4.2222738E-1,1.9665526E-1,6.56091E-2,-4.1702505E-2,6.9614045E-2,-3.422375E-1,2.146101E-2,6.3316287E-3,1.072008E-1,3.428046E-2,-3.322109E-2],"split_indices":[5,0,7,9,0,7,9,9,9,7,7,3,0,0,0,0,0,0,0,0,0,0,0,0,0],"split_type":[0,0,0,0,0,0,0,0,0,0,0,0,0,0,0,0,0,0,0,0,0,0,0,0,0],"sum_hessian":[1.84E2,7.7E1,1.07E2,7.2E1,5E0,4.7E1,6E1,5.8E1,1.4E1,4.2E1,5E0,4.4E1,1.6E1,5.7E1,1E0,3E0,1.1E1,1.6E1,2.6E1,3E0,2E0,7E0,3.7E1,1.4E1,2E0],"tree_param":{"num_deleted":"0","num_feature":"10","num_nodes":"25","size_leaf_vector":"1"}},{"base_weights":[-2.7597353E-1,-8.255379E-1,7.6821715E-1,-6.402023E-1,-4.0127823E-1,1.2938584E0,-2.6462018E0,-8.0498624E-1,3.3437831E0,3.4523704E0,9.7222227E-1,-3.4520105E-1,2.1408575E0,-9.840186E-2,-1.1031608E-2,1.9028501E-1,3.740287E-2,1.8446892E-1,5.0758075E-2,6.743271E-2,3.20074E-2,2.3086231E-2,1.5531856E-1],"categories":[],"categories_nodes":[],"categories_segments":[],"categories_sizes":[],"default_left":[0,0,0,0,0,0,0,0,0,0,0,0,0,0,0,0,0,0,0,0,0,0,0],"id":45,"left_children":[1,3,5,7,-1,9,11,13,15,17,19,-1,21,-1,-1,-1,-1,-1,-1,-1,-1,-1,-1],"loss_changes":[1.07944145E2,1.5899585E2,1.20083176E2,8.212784E1,0E0,3.621608E1,1.9822241E2,7.908293E1,3.1481667E0,2.981491E-1,5.511833E0,0E0,6.6718388E0,0E0,0E0,0E0,0E0,0E0,0E0,0E0,0E0,0E0,0E0],"parents":[2147483647,0,0,1,1,2,2,3,3,5,5,6,6,7,7,8,8,9,9,10,10,12,12],"right_children":[2,4,6,8,-1,10,12,14,16,18,20,-1,22,-1,-1,-1,-1,-1,-1,-1,-1,-1,-1],"split_conditions":[2.0955029E8,2.0745546E8,2.7013424E1,7E0,-4.0127823E-1,2.6995184E8,2.730137E1,1.6267214E1,2.5296438E1,3.65E1,1.3439443E9,-3.4520105E-1,2.7397268E1,-9.840186E-2,-1.1031608E-2,1.9028501E-1,3.740287E-2,1.8446892E-1,5.0758075E-2,6.743271E-2,3.20074E-2,2.3086231E-2,1.5531856E-1],"split_indices":[9,9,0,6,0,9,0,7,0,1,9,0,0,0,0,0,0,0,0,0,0,0,0],"split_type":[0,0,0,0,0,0,0,0,0,0,0,0,0,0,0,0,0,0,0,0,0,0,0],"sum_hessian":[1.86E2,1.22E2,6.4E1,1.2E2,2E0,5.6E1,8E0,1.16E2,4E0,6E0,5E1,4E0,4E0,3.8E1,7.8E1,3E0,1E0,5E0,1E0,2.2E1,2.8E1,2E0,2E0],"tree_param":{"num_deleted":"0","num_feature":"10","num_nodes":"23","size_leaf_vector":"1"}},{"base_weights":[5.0283358E-2,-7.887573E-1,5.518437E-1,3.068959E-1,-2.7732089E0,1.9684927E-1,3.971751E-1,-1.1883136E0,2.3100839E0,-4.2860103E-1,-1.8962679E0,-8.5207504E-1,7.992894E-1,-1.683255E-3,-3.131017E-1,-1.7428796E-1,1.3992946E-1,6.353157E-2,-1.6806005E-1,1.5381862E-1,-9.1992036E-2,9.348979E-2,6.514471E-3],"categories":[],"categories_nodes":[],"categories_segments":[],"categories_sizes":[],"default_left":[0,0,0,0,0,0,0,0,0,0,0,0,0,0,0,0,0,0,0,0,0,0,0],"id":46,"left_children":[1,3,5,7,9,-1,11,13,15,-1,17,19,21,-1,-1,-1,-1,-1,-1,-1,-1,-1,-1],"loss_changes":[7.870957E1,1.5305003E2,5.9694626E1,1.4052365E2,1.1087555E2,0E0,5.7445625E1,1.57965E2,6.63812E1,0E0,1.10974625E2,1.1431082E2,6.1346897E1,0E0,0E0,0E0,0E0,0E0,0E0,0E0,0E0,0E0,0E0],"parents":[2147483647,0,0,1,1,2,2,3,3,4,4,6,6,7,7,8,8,10,10,11,11,12,12],"right_children":[2,4,6,8,10,-1,12,14,16,-1,18,20,22,-1,-1,-1,-1,-1,-1,-1,-1,-1,-1],"split_conditions":[7.164149E7,1.7510685E1,8.328727E7,-2.8E0,1.7609863E1,1.9684927E-1,3.71E1,-3.5E0,1.3824043E1,-4.2860103E-1,1.8392056E1,-1.91E1,6.73E1,-1.683255E-3,-3.131017E-1,-1.7428796E-1,1.3992946E-1,6.353157E-2,-1.6806005E-1,1.5381862E-1,-9.1992036E-2,9.348979E-2,6.514471E-3],"split_indices":[9,0,9,2,0,0,4,2,7,0,0,2,4,0,0,0,0,0,0,0,0,0,0],"split_type":[0,0,0,0,0,0,0,0,0,0,0,0,0,0,0,0,0,0,0,0,0,0,0],"sum_hessian":[1.85E2,6.9E1,1.16E2,4.5E1,2.4E1,4E0,1.12E2,2.6E1,1.9E1,2E0,2.2E1,2.7E1,8.5E1,2.2E1,4E0,1E0,1.8E1,7E0,1.5E1,5E0,2.2E1,3.2E1,5.3E1],"tree_param":{"num_deleted":"0","num_feature":"10","num_nodes":"23","size_leaf_vector":"1"}},{"base_weights":[-9.483459E-2,-4.903507E-1,1.1015208E0,-2.8583026E-1,-4.110425E0,-7.701725E-1,1.424126E0,-2.9029372E0,-6.886006E-2,-3.0537206E-1,6.2687464E-2,-3.8387077E0,1.8386902E0,3.4228902E0,1.0074916E0,1.5295206E-1,-1.9025196E-1,-2.1400718E-1,3.0127203E-3,-2.2614074E-1,-4.4659656E-2,2.6608467E-2,1.016139E-1,2.0221587E-1,-7.6418403E-3,5.842471E-2,-1.2831231E-2],"categories":[],"categories_nodes":[],"categories_segments":[],"categories_sizes":[],"default_left":[0,0,0,0,0,0,0,0,0,0,0,0,0,0,0,0,0,0,0,0,0,0,0,0,0,0,0],"id":47,"left_children":[1,3,5,7,9,11,13,15,17,-1,-1,19,21,23,25,-1,-1,-1,-1,-1,-1,-1,-1,-1,-1,-1,-1],"loss_changes":[9.517569E1,1.1062237E2,3.1287727E1,8.156824E1,9.335594E1,7.1101295E1,3.2359886E1,7.080121E1,7.3118744E1,0E0,0E0,4.020447E0,1.8311691E-1,1.6172493E1,7.83033E0,0E0,0E0,0E0,0E0,0E0,0E0,0E0,0E0,0E0,0E0,0E0,0E0],"parents":[2147483647,0,0,1,1,2,2,3,3,4,4,5,5,6,6,7,7,8,8,11,11,12,12,13,13,14,14],"right_children":[2,4,6,8,10,12,14,16,18,-1,-1,20,22,24,26,-1,-1,-1,-1,-1,-1,-1,-1,-1,-1,-1,-1],"split_conditions":[7.89E1,7.46E1,5.1585056E7,3.2848075E11,1.8723749E12,3.42E1,1.0755316E8,2.89E1,3.07E1,-3.0537206E-1,6.2687464E-2,2.19E1,-3E-1,3.57E1,1.4254232E9,1.5295206E-1,-1.9025196E-1,-2.1400718E-1,3.0127203E-3,-2.2614074E-1,-4.4659656E-2,2.6608467E-2,1.016139E-1,2.0221587E-1,-7.6418403E-3,5.842471E-2,-1.2831231E-2],"split_indices":[4,4,9,8,8,1,9,1,1,0,0,2,2,1,9,0,0,0,0,0,0,0,0,0,0,0,0],"split_type":[0,0,0,0,0,0,0,0,0,0,0,0,0,0,0,0,0,0,0,0,0,0,0,0,0,0,0],"sum_hessian":[1.99E2,1.5E2,4.9E1,1.43E2,7E0,7E0,4.2E1,1E1,1.33E2,5E0,2E0,3E0,4E0,6E0,3.6E1,1E0,9E0,3E0,1.3E2,2E0,1E0,1E0,3E0,5E0,1E0,3.2E1,4E0],"tree_param":{"num_deleted":"0","num_feature":"10","num_nodes":"27","size_leaf_vector":"1"}},{"base_weights":[3.631761E-1,-1.3925071E0,5.843429E-1,1.673139E0,-3.6435804E0,1.2552195E0,-2.488429E-1,3.1882038E0,-2.9247465E0,1.8588356E0,-4.8130045E0,2.258112E-1,9.876389E-1,-3.16664E0,3.296451E-1,2.5883961E-2,1.7478766E-1,-3.0224645E-1,8.2890466E-2,2.208221E-2,1.17330454E-1,-3.34259E-1,6.729865E-3,-2.743616E-1,5.98575E-2,-6.0827315E-2,-2.3321784E-1,-8.219814E-2,3.557158E-2],"categories":[],"categories_nodes":[],"categories_segments":[],"categories_sizes":[],"default_left":[0,0,0,0,0,0,0,0,0,0,0,0,0,0,0,0,0,0,0,0,0,0,0,0,0,0,0,0,0],"id":48,"left_children":[1,3,5,7,9,11,13,15,17,19,21,-1,23,25,27,-1,-1,-1,-1,-1,-1,-1,-1,-1,-1,-1,-1,-1,-1],"loss_changes":[7.614366E1,1.5791809E2,9.701326E1,7.898563E1,9.259715E1,7.9307434E1,1.327009E2,4.760872E0,5.2916573E1,1.0374393E0,1.0279036E2,0E0,1.2865918E2,3.229454E1,5.0900356E1,0E0,0E0,0E0,0E0,0E0,0E0,0E0,0E0,0E0,0E0,0E0,0E0,0E0,0E0],"parents":[2147483647,0,0,1,1,2,2,3,3,4,4,5,5,6,6,7,7,8,8,9,9,10,10,12,12,13,13,14,14],"right_children":[2,4,6,8,10,12,14,16,18,20,22,-1,24,26,28,-1,-1,-1,-1,-1,-1,-1,-1,-1,-1,-1,-1,-1,-1],"split_conditions":[1.1703006E1,6.567E2,1.9196165E1,1.1368767E1,2.21E1,4.2173927E11,7.164149E7,3E1,1.145452E1,5.6772604E0,7.23E1,2.258112E-1,4.8708613E11,1.4126776E1,3.75E1,2.5883961E-2,1.7478766E-1,-3.0224645E-1,8.2890466E-2,2.208221E-2,1.17330454E-1,-3.34259E-1,6.729865E-3,-2.743616E-1,5.98575E-2,-6.0827315E-2,-2.3321784E-1,-8.219814E-2,3.557158E-2],"split_indices":[0,3,0,0,4,8,9,1,0,0,4,0,8,7,4,0,0,0,0,0,0,0,0,0,0,0,0,0,0],"split_type":[0,0,0,0,0,0,0,0,0,0,0,0,0,0,0,0,0,0,0,0,0,0,0,0,0,0,0,0,0],"sum_hessian":[1.93E2,2.1E1,1.72E2,9E0,1.2E1,9.5E1,7.7E1,7E0,2E0,2E0,1E1,6E0,8.9E1,1.2E1,6.5E1,1E0,6E0,1E0,1E0,1E0,1E0,7E0,3E0,2E0,8.7E1,6E0,6E0,1E1,5.5E1],"tree_param":{"num_deleted":"0","num_feature":"10","num_nodes":"29","size_leaf_vector":"1"}},{"base_weights":[8.695952E-2,4.1051108E-1,-1.3668848E0,-7.8603464E-1,8.1264085E-1,-3.0037856E0,5.4299754E-1,-1.5773369E0,1.4435201E0,2.2875686E0,2.60798E-1,-6.1524315E0,-1.545496E-1,1.2798665E0,-2.8117266E-1,-2.7963726E-2,-2.778187E-1,8.9096315E-2,-2.6435852E-3,1.8915297E-1,2.7781827E-2,-4.0276724E-1,2.2558209E-2,-5.412055E-2,-4.25352E-1,8.489256E-2,-9.905961E-2,1.0360149E-1,2.9868279E-2],"categories":[],"categories_nodes":[],"categories_segments":[],"categories_sizes":[],"default_left":[0,0,0,0,0,0,0,0,0,0,0,0,0,0,0,0,0,0,0,0,0,0,0,0,0,0,0,0,0],"id":49,"left_children":[1,3,5,7,9,11,13,15,17,19,21,23,25,27,-1,-1,-1,-1,-1,-1,-1,-1,-1,-1,-1,-1,-1,-1,-1],"loss_changes":[9.0406296E1,7.618193E1,1.1105113E2,7.2846985E1,9.544694E1,1.6950261E2,8.444299E1,1.184197E2,5.664486E0,8.078084E1,1.41365E2,9.823312E1,4.058419E1,7.412676E0,0E0,0E0,0E0,0E0,0E0,0E0,0E0,0E0,0E0,0E0,0E0,0E0,0E0,0E0,0E0],"parents":[2147483647,0,0,1,1,2,2,3,3,4,4,5,5,6,6,7,7,8,8,9,9,10,10,11,11,12,12,13,13],"right_children":[2,4,6,8,10,12,14,16,18,20,22,24,26,28,-1,-1,-1,-1,-1,-1,-1,-1,-1,-1,-1,-1,-1,-1,-1],"split_conditions":[2.8E1,1.6115343E1,5.16E1,5E0,1.7690437E1,4.15E1,1.384E2,1.436411E1,2.0236E3,3.57E1,1.7736439E1,-3.8E0,1.21E2,1.6706474E12,-2.8117266E-1,-2.7963726E-2,-2.778187E-1,8.9096315E-2,-2.6435852E-3,1.8915297E-1,2.7781827E-2,-4.0276724E-1,2.2558209E-2,-5.412055E-2,-4.25352E-1,8.489256E-2,-9.905961E-2,1.0360149E-1,2.9868279E-2],"split_indices":[5,7,4,5,7,1,4,7,3,1,7,2,5,8,0,0,0,0,0,0,0,0,0,0,0,0,0,0,0],"split_type":[0,0,0,0,0,0,0,0,0,0,0,0,0,0,0,0,0,0,0,0,0,0,0,0,0,0,0,0,0],"sum_hessian":[1.9E2,1.56E2,3.4E1,3.9E1,1.17E2,1.8E1,1.6E1,2.9E1,1E1,3.1E1,8.6E1,8E0,1E1,1.5E1,1E0,2.4E1,5E0,8E0,2E0,1.6E1,1.5E1,1E0,8.5E1,3E0,5E0,5E0,5E0,6E0,9E0],"tree_param":{"num_deleted":"0","num_feature":"10","num_nodes":"29","size_leaf_vector":"1"}},{"base_weights":[1.8716113E-1,-2.694928E0,3.3866236E-1,1.4645422E-1,-3.645272E0,-3.6558688E-1,8.15552E-1,-2.251101E-1,8.025425E-2,8.6677957E-1,-1.4688058E0,1.9368253E0,4.5819646E-1,-1.8785064E-1,8.533269E-2,-2.2124341E-1,2.0340106E-2,1.5110223E-1,4.179673E-3,1.9051711E-1,1.4655788E-2],"categories":[],"categories_nodes":[],"categories_segments":[],"categories_sizes":[],"default_left":[0,0,0,0,0,0,0,0,0,0,0,0,0,0,0,0,0,0,0,0,0],"id":50,"left_children":[1,3,5,-1,7,9,11,-1,-1,13,15,17,19,-1,-1,-1,-1,-1,-1,-1,-1],"loss_changes":[8.736738E1,6.412479E1,6.3773647E1,0E0,4.7719116E1,1.05960014E2,4.4390884E1,0E0,0E0,1.5009785E2,2.29121E2,5.4048767E1,4.702672E1,0E0,0E0,0E0,0E0,0E0,0E0,0E0,0E0],"parents":[2147483647,0,0,1,1,2,2,4,4,5,5,6,6,9,9,10,10,11,11,12,12],"right_children":[2,4,6,-1,8,10,12,-1,-1,14,16,18,20,-1,-1,-1,-1,-1,-1,-1,-1],"split_conditions":[1.82E1,1.42E1,8.234867E7,1.4645422E-1,5.383E2,8.672E2,1.1907215E12,-2.251101E-1,8.025425E-2,3.4479512E11,5.49E1,3E0,8.309296E7,-1.8785064E-1,8.533269E-2,-2.2124341E-1,2.0340106E-2,1.5110223E-1,4.179673E-3,1.9051711E-1,1.4655788E-2],"split_indices":[4,3,9,0,3,3,8,0,0,8,4,6,9,0,0,0,0,0,0,0,0],"split_type":[0,0,0,0,0,0,0,0,0,0,0,0,0,0,0,0,0,0,0,0,0],"sum_hessian":[1.97E2,9E0,1.88E2,1E0,8E0,7.6E1,1.12E2,7E0,1E0,3.6E1,4E1,2.6E1,8.6E1,5E0,3.1E1,1.5E1,2.5E1,1.6E1,1E1,3E0,8.3E1],"tree_param":{"num_deleted":"0","num_feature":"10","num_nodes":"21","size_leaf_vector":"1"}},{"base_weights":[-1.3393942E-1,-4.545708E0,1.0650535E-2,-2.4675238E-1,-6.49753E-2,1.8610214E-1,-2.1331263E0,-1.3427947E0,4.9485672E-1,-2.840552E-1,-1.0683712E0,3.066108E-2,-2.8788167E-1,-2.5323862E-2,5.030626E-2,-1.3458614E-1,8.71333E-2],"categories":[],"categories_nodes":[],"categories_segments":[],"categories_sizes":[],"default_left":[0,0,0,0,0,0,0,0,0,0,0,0,0,0,0,0,0],"id":51,"left_children":[1,3,5,-1,-1,7,9,11,13,-1,15,-1,-1,-1,-1,-1,-1],"loss_changes":[1.2061103E2,1.1701202E0,6.960472E1,0E0,0E0,8.1385704E1,4.6818653E1,2.5396008E2,7.371849E1,0E0,5.9450405E1,0E0,0E0,0E0,0E0,0E0,0E0],"parents":[2147483647,0,0,1,1,2,2,5,5,6,6,7,7,8,8,10,10],"right_children":[2,4,6,-1,-1,8,10,12,14,-1,16,-1,-1,-1,-1,-1,-1],"split_conditions":[1.82E1,5.7E0,2.11E1,-2.4675238E-1,-6.49753E-2,3.31E1,2.14E1,2.055452E1,1.6909315E1,-2.840552E-1,2E0,3.066108E-2,-2.8788167E-1,-2.5323862E-2,5.030626E-2,-1.3458614E-1,8.71333E-2],"split_indices":[4,2,2,0,0,1,2,7,7,0,5,0,0,0,0,0,0],"split_type":[0,0,0,0,0,0,0,0,0,0,0,0,0,0,0,0,0],"sum_hessian":[1.88E2,5E0,1.83E2,4E0,1E0,1.7E2,1.3E1,2.8E1,1.42E2,2E0,1.1E1,2E1,8E0,4.8E1,9.4E1,7E0,4E0],"tree_param":{"num_deleted":"0","num_feature":"10","num_nodes":"17","size_leaf_vector":"1"}},{"base_weights":[-3.1600643E-2,-1.6056896E0,2.8151104E-1,6.483418E-1,-3.300678E0,5.555433E-1,-1.2862529E0,3.0314872E0,-8.4637964E-1,-4.5051107E0,9.72756E-1,-1.075784E0,9.1331226E-1,-3.0833372E-1,-6.29975E-2,1.6549543E-1,4.0984537E-2,-2.4274635E-1,7.825651E-2,-2.711101E-1,4.8532583E-2,1.8835571E-1,-2.551169E-1,-1.8857887E-1,-2.8008852E-2,1.1941417E-1,2.7330006E-2,-2.8559053E-1,4.16118E-2],"categories":[],"categories_nodes":[],"categories_segments":[],"categories_sizes":[],"default_left":[0,0,0,0,0,0,0,0,0,0,0,0,0,0,0,0,0,0,0,0,0,0,0,0,0,0,0,0,0],"id":52,"left_children":[1,3,5,7,9,11,13,15,17,19,21,23,25,-1,27,-1,-1,-1,-1,-1,-1,-1,-1,-1,-1,-1,-1,-1,-1],"loss_changes":[9.803941E1,1.2821835E2,7.203114E1,5.5997864E1,1.0217659E2,8.3859146E1,1.4886156E2,9.8176575E-1,1.0426511E2,8.058963E1,1.04101036E2,3.402646E1,6.1978676E1,0E0,1.10950714E2,0E0,0E0,0E0,0E0,0E0,0E0,0E0,0E0,0E0,0E0,0E0,0E0,0E0,0E0],"parents":[2147483647,0,0,1,1,2,2,3,3,4,4,5,5,6,6,7,7,8,8,9,9,10,10,11,11,12,12,14,14],"right_children":[2,4,6,8,10,12,14,16,18,20,22,24,26,-1,28,-1,-1,-1,-1,-1,-1,-1,-1,-1,-1,-1,-1,-1,-1],"split_conditions":[1.2495891E1,3.03E1,2.7008196E1,1.9773151E1,7.58E1,3.33E1,3.53E1,1.1837809E1,2.0716986E1,5.1103573E12,1.094E2,-2.8E0,3.51E1,-3.0833372E-1,3.4E1,1.6549543E-1,4.0984537E-2,-2.4274635E-1,7.825651E-2,-2.711101E-1,4.8532583E-2,1.8835571E-1,-2.551169E-1,-1.8857887E-1,-2.8008852E-2,1.1941417E-1,2.7330006E-2,-2.8559053E-1,4.16118E-2],"split_indices":[0,4,0,7,4,1,1,0,7,8,4,2,1,0,4,0,0,0,0,0,0,0,0,0,0,0,0,0,0],"split_type":[0,0,0,0,0,0,0,0,0,0,0,0,0,0,0,0,0,0,0,0,0,0,0,0,0,0,0,0,0],"sum_hessian":[1.97E2,3.2E1,1.65E2,1.4E1,1.8E1,1.41E2,2.4E1,5E0,9E0,1.4E1,4E0,2.5E1,1.16E2,4E0,2E1,4E0,1E0,3E0,6E0,1.2E1,2E0,3E0,1E0,3E0,2.2E1,2.2E1,9.4E1,2E0,1.8E1],"tree_param":{"num_deleted":"0","num_feature":"10","num_nodes":"29","size_leaf_vector":"1"}},{"base_weights":[-1.8257833E-1,-1.1194272E0,4.7646102E-1,-2.967489E0,-3.6727458E-1,2.3718886E0,2.5100866E-1,-1.3780581E0,-5.7754145E0,-6.944139E-1,1.2918344E-1,1.617466E-1,4.8484486E-2,-9.225067E-1,8.95323E-1,1.1073609E-1,-1.3801058E-1,-3.4340233E-1,4.682522E-2,-6.992355E-2,5.912144E-2,4.5231883E-3,-2.638366E-1,1.1052151E-1,2.1969927E-2],"categories":[],"categories_nodes":[],"categories_segments":[],"categories_sizes":[],"default_left":[0,0,0,0,0,0,0,0,0,0,0,0,0,0,0,0,0,0,0,0,0,0,0,0,0],"id":53,"left_children":[1,3,5,7,9,11,13,15,17,19,-1,-1,-1,21,23,-1,-1,-1,-1,-1,-1,-1,-1,-1,-1],"loss_changes":[1.1969547E2,1.10112076E2,4.8120094E1,9.469023E1,5.7785576E1,1.1385025E1,7.870556E1,8.556546E1,6.51012E1,7.1688034E1,0E0,0E0,0E0,1.6367332E2,3.9201244E1,0E0,0E0,0E0,0E0,0E0,0E0,0E0,0E0,0E0,0E0],"parents":[2147483647,0,0,1,1,2,2,3,3,4,4,5,5,6,6,7,7,8,8,9,9,13,13,14,14],"right_children":[2,4,6,8,10,12,14,16,18,20,-1,-1,-1,22,24,-1,-1,-1,-1,-1,-1,-1,-1,-1,-1],"split_conditions":[1.3983496E12,3.75E1,5.23E2,3.36E1,4.1E1,1.58912325E1,8.351659E7,3.8E0,1.9448E3,6.469503E11,1.2918344E-1,1.617466E-1,4.8484486E-2,6.837229E7,2.2924952E12,1.1073609E-1,-1.3801058E-1,-3.4340233E-1,4.682522E-2,-6.992355E-2,5.912144E-2,4.5231883E-3,-2.638366E-1,1.1052151E-1,2.1969927E-2],"split_indices":[8,4,3,4,5,0,9,2,3,8,0,0,0,9,8,0,0,0,0,0,0,0,0,0,0],"split_type":[0,0,0,0,0,0,0,0,0,0,0,0,0,0,0,0,0,0,0,0,0,0,0,0,0],"sum_hessian":[1.92E2,7.9E1,1.13E2,2.2E1,5.7E1,1.1E1,1.02E2,1.5E1,7E0,5.2E1,5E0,6E0,5E0,3.6E1,6.6E1,4E0,1.1E1,6E0,1E0,3.8E1,1.4E1,3E1,6E0,1.6E1,5E1],"tree_param":{"num_deleted":"0","num_feature":"10","num_nodes":"25","size_leaf_vector":"1"}},{"base_weights":[-9.170273E-2,-4.721902E-1,6.4141476E-1,-3.1140003E0,-1.8996292E-1,1.1011645E0,-1.7156439E0,-2.6116794E-1,-4.5077705E0,-1.08314E-2,-5.113372E0,1.3308589E-1,6.505325E-1,-3.0506978E0,1.4306995E-1,5.1145773E-2,-7.290977E-2,-3.069629E-1,-6.7073405E-2,-9.020081E-3,1.4933571E-1,5.523739E-2,-3.777164E-1,4.905569E-2,2.1329453E-2,-2.9082283E-1,-3.4920454E-2],"categories":[],"categories_nodes":[],"categories_segments":[],"categories_sizes":[],"default_left":[0,0,0,0,0,0,0,0,0,0,0,0,0,0,0,0,0,0,0,0,0,0,0,0,0,0,0],"id":54,"left_children":[1,3,5,7,9,11,13,15,17,19,21,-1,23,25,-1,-1,-1,-1,-1,-1,-1,-1,-1,-1,-1,-1,-1],"loss_changes":[5.3022915E1,9.26073E1,7.2326904E1,4.653704E1,1.0048553E2,3.6946404E1,7.594585E1,9.177027E0,3.3090652E1,5.6959488E1,6.905825E1,0E0,2.838852E0,5.44905E1,0E0,0E0,0E0,0E0,0E0,0E0,0E0,0E0,0E0,0E0,0E0,0E0,0E0],"parents":[2147483647,0,0,1,1,2,2,3,3,4,4,5,5,6,6,7,7,8,8,9,9,10,10,12,12,13,13],"right_children":[2,4,6,8,10,12,14,16,18,20,22,-1,24,26,-1,-1,-1,-1,-1,-1,-1,-1,-1,-1,-1,-1,-1],"split_conditions":[2.0955029E8,1.3824043E1,2.7008196E1,1.3613973E1,2.0745546E8,3.2852957E8,2.7443287E1,2.6594246E1,8.8E0,6E0,1.9260109E1,1.3308589E-1,1.3439443E9,1.9448E3,1.4306995E-1,5.1145773E-2,-7.290977E-2,-3.069629E-1,-6.7073405E-2,-9.020081E-3,1.4933571E-1,5.523739E-2,-3.777164E-1,4.905569E-2,2.1329453E-2,-2.9082283E-1,-3.4920454E-2],"split_indices":[9,7,0,7,9,9,0,0,2,6,0,0,9,3,0,0,0,0,0,0,0,0,0,0,0,0,0],"split_type":[0,0,0,0,0,0,0,0,0,0,0,0,0,0,0,0,0,0,0,0,0,0,0,0,0,0,0],"sum_hessian":[1.88E2,1.24E2,6.4E1,1.1E1,1.13E2,5.4E1,1E1,4E0,7E0,1.1E2,3E0,1.1E1,4.3E1,8E0,2E0,2E0,2E0,4E0,3E0,1.05E2,5E0,1E0,2E0,1.6E1,2.7E1,3E0,5E0],"tree_param":{"num_deleted":"0","num_feature":"10","num_nodes":"27","size_leaf_vector":"1"}},{"base_weights":[-1.6099085E-1,-4.9880573E-1,6.864212E-1,-1.206851E0,3.3673653E-1,1.986281E-1,4.9114636E-1,-8.6496794E-1,-3.5722527E-1,2.5647542E0,-1.0300239E0,-1.8827328E-1,6.425063E-1,-2.740652E-2,-4.0375668E-1,1.4088216E-1,-8.761462E-2,-2.7349997E-1,-5.6299786E-3,4.1278314E-2,1.0314363E-2],"categories":[],"categories_nodes":[],"categories_segments":[],"categories_sizes":[],"default_left":[0,0,0,0,0,0,0,0,0,0,0,0,0,0,0,0,0,0,0,0,0],"id":55,"left_children":[1,3,5,7,9,-1,11,13,-1,15,17,-1,19,-1,-1,-1,-1,-1,-1,-1,-1],"loss_changes":[5.616473E1,8.323064E1,3.398413E1,1.4809898E2,2.0057756E2,0E0,3.7210484E1,1.6233868E2,0E0,3.2230667E1,1.6639108E2,0E0,4.0619698E0,0E0,0E0,0E0,0E0,0E0,0E0,0E0,0E0],"parents":[2147483647,0,0,1,1,2,2,3,3,4,4,6,6,7,7,9,9,10,10,12,12],"right_children":[2,4,6,8,10,-1,12,14,-1,16,18,-1,20,-1,-1,-1,-1,-1,-1,-1,-1],"split_conditions":[2.231509E8,1.7950686E1,6.494617E11,2.0745546E8,2.0267124E1,1.986281E-1,1.0590548E12,1.7883562E1,-3.5722527E-1,1.33E2,2.0860548E1,-1.8827328E-1,1.40276E9,-2.740652E-2,-4.0375668E-1,1.4088216E-1,-8.761462E-2,-2.7349997E-1,-5.6299786E-3,4.1278314E-2,1.0314363E-2],"split_indices":[9,7,8,9,7,0,8,7,0,5,7,0,9,0,0,0,0,0,0,0,0],"split_type":[0,0,0,0,0,0,0,0,0,0,0,0,0,0,0,0,0,0,0,0,0],"sum_hessian":[1.94E2,1.39E2,5.5E1,7.5E1,6.4E1,2E0,5.3E1,7.2E1,3E0,2.4E1,4E1,1E0,5.2E1,7E1,2E0,2.3E1,1E0,6E0,3.4E1,3.6E1,1.6E1],"tree_param":{"num_deleted":"0","num_feature":"10","num_nodes":"21","size_leaf_vector":"1"}},{"base_weights":[-8.893781E-2,-2.0081396E0,1.6442373E-1,1.7818173E0,-4.769019E0,3.3375618E-1,-1.7099776E0,3.1968207E0,-2.5854645E0,-5.564309E0,1.1936154E-1,-1.1071911E0,5.326109E-1,-2.4899521E-1,-7.4999785E-1,2.3443628E-2,1.759773E-1,6.982026E-2,-2.637301E-1,8.264241E-2,-3.1853366E-1,2.2093784E-2,-2.7664766E-1,9.143507E-2,1.5970236E-2,-1.1676393E-1,9.682255E-2],"categories":[],"categories_nodes":[],"categories_segments":[],"categories_sizes":[],"default_left":[0,0,0,0,0,0,0,0,0,0,0,0,0,0,0,0,0,0,0,0,0,0,0,0,0,0,0],"id":56,"left_children":[1,3,5,7,9,11,13,15,17,19,-1,21,23,-1,25,-1,-1,-1,-1,-1,-1,-1,-1,-1,-1,-1,-1],"loss_changes":[9.174555E1,2.3869702E2,5.3576008E1,7.0062454E1,8.727011E1,4.4716736E1,4.021197E1,5.3927994E0,3.948887E1,8.036563E1,0E0,1.3270511E2,3.699739E1,0E0,5.5627457E1,0E0,0E0,0E0,0E0,0E0,0E0,0E0,0E0,0E0,0E0,0E0,0E0],"parents":[2147483647,0,0,1,1,2,2,3,3,4,4,5,5,6,6,7,7,8,8,9,9,11,11,12,12,14,14],"right_children":[2,4,6,8,10,12,14,16,18,20,-1,22,24,-1,26,-1,-1,-1,-1,-1,-1,-1,-1,-1,-1,-1,-1],"split_conditions":[1.1746721E1,2.62E1,2.11E1,3.49E1,1.1628E3,3.27E1,2.14E1,5.6772604E0,1.1073699E1,4.513E2,1.1936154E-1,3.2E1,3.44E1,-2.4899521E-1,2E0,2.3443628E-2,1.759773E-1,6.982026E-2,-2.637301E-1,8.264241E-2,-3.1853366E-1,2.2093784E-2,-2.7664766E-1,9.143507E-2,1.5970236E-2,-1.1676393E-1,9.682255E-2],"split_indices":[0,4,2,1,3,1,2,0,0,3,0,1,1,0,5,0,0,0,0,0,0,0,0,0,0,0,0],"split_type":[0,0,0,0,0,0,0,0,0,0,0,0,0,0,0,0,0,0,0,0,0,0,0,0,0,0,0],"sum_hessian":[1.87E2,2.1E1,1.66E2,9E0,1.2E1,1.53E2,1.3E1,7E0,2E0,1.1E1,1E0,1.8E1,1.35E2,2E0,1.1E1,1E0,6E0,1E0,1E0,1E0,1E1,1.4E1,4E0,1.8E1,1.17E2,7E0,4E0],"tree_param":{"num_deleted":"0","num_feature":"10","num_nodes":"27","size_leaf_vector":"1"}},{"base_weights":[1.3193655E-1,-9.1548496E-1,6.4994603E-1,-2.2472258E0,3.5798925E-1,9.470477E-1,-2.5643263E0,-2.7794085E0,1.5570493E-1,1.908439E0,-3.973673E-1,4.235793E0,5.2165836E-1,-4.6535583E0,1.7329116E0,3.2469373E-2,-1.9202583E-1,1.2351819E-1,2.2398043E-2,-1.6974553E-1,5.1398873E-2,2.351172E-1,6.34346E-2,-2.4922816E-1,3.1663124E-2,6.9520764E-2,-2.9463115E-1,1.7274313E-1,-8.5823506E-2],"categories":[],"categories_nodes":[],"categories_segments":[],"categories_sizes":[],"default_left":[0,0,0,0,0,0,0,0,0,0,0,0,0,0,0,0,0,0,0,0,0,0,0,0,0,0,0,0,0],"id":57,"left_children":[1,3,5,7,9,11,13,15,-1,17,19,21,23,25,27,-1,-1,-1,-1,-1,-1,-1,-1,-1,-1,-1,-1,-1,-1],"loss_changes":[9.337522E1,9.747293E1,1.1224959E2,8.8545044E1,3.5892624E1,1.4608406E2,9.7843475E1,9.709039E1,0E0,7.1001663E0,9.321307E1,1.0645828E1,6.1535637E1,6.061534E1,2.9688828E1,0E0,0E0,0E0,0E0,0E0,0E0,0E0,0E0,0E0,0E0,0E0,0E0,0E0,0E0],"parents":[2147483647,0,0,1,1,2,2,3,3,4,4,5,5,6,6,7,7,9,9,10,10,11,11,12,12,13,13,14,14],"right_children":[2,4,6,8,10,12,14,16,-1,18,20,22,24,26,28,-1,-1,-1,-1,-1,-1,-1,-1,-1,-1,-1,-1,-1,-1],"split_conditions":[1.6267214E1,5E0,2.8E1,6E0,2E1,6.0386954E11,1.7950686E1,1.3303561E1,1.5570493E-1,3.86E1,3.8E1,3.57E1,6.469503E11,-4.3E0,1.33E2,3.2469373E-2,-1.9202583E-1,1.2351819E-1,2.2398043E-2,-1.6974553E-1,5.1398873E-2,2.351172E-1,6.34346E-2,-2.4922816E-1,3.1663124E-2,6.9520764E-2,-2.9463115E-1,1.7274313E-1,-8.5823506E-2],"split_indices":[7,5,5,6,5,8,7,7,0,1,5,1,8,2,5,0,0,0,0,0,0,0,0,0,0,0,0,0,0],"split_type":[0,0,0,0,0,0,0,0,0,0,0,0,0,0,0,0,0,0,0,0,0,0,0,0,0,0,0,0,0],"sum_hessian":[1.7E2,5.6E1,1.14E2,2.7E1,2.9E1,1.05E2,9E0,2.5E1,2E0,9E0,2E1,1.1E1,9.4E1,6E0,3E0,6E0,1.9E1,6E0,3E0,6E0,1.4E1,9E0,2E0,1E0,9.3E1,1E0,5E0,2E0,1E0],"tree_param":{"num_deleted":"0","num_feature":"10","num_nodes":"29","size_leaf_vector":"1"}},{"base_weights":[-6.720964E-2,2.120661E-1,-1.3579371E0,-1.0974208E0,5.4284304E-1,-2.94197E-1,-7.4975115E-1,-1.9530592E0,1.8205816E0,1.9201032E0,1.1046398E-1,-3.368798E0,7.825495E-1,-2.0773388E-2,-1.7293458E-1,1.2150264E-1,3.0179858E-2,1.10077284E-1,-7.202711E-2,-2.663352E-1,1.6676914E-2,6.4053163E-3,-2.5666317E-1,1.640905E-1,9.184166E-3],"categories":[],"categories_nodes":[],"categories_segments":[],"categories_sizes":[],"default_left":[0,0,0,0,0,0,0,0,0,0,0,0,0,0,0,0,0,0,0,0,0,0,0,0,0],"id":58,"left_children":[1,3,5,7,9,-1,11,13,15,17,19,21,23,-1,-1,-1,-1,-1,-1,-1,-1,-1,-1,-1,-1],"loss_changes":[7.0939865E1,7.0765724E1,9.19313E1,8.5948616E1,7.72027E1,0E0,1.3105762E2,5.8754265E1,4.466961E0,3.2492096E1,1.2306589E2,7.4699615E1,3.0828362E1,0E0,0E0,0E0,0E0,0E0,0E0,0E0,0E0,0E0,0E0,0E0,0E0],"parents":[2147483647,0,0,1,1,2,2,3,3,4,4,6,6,7,7,8,8,9,9,10,10,11,11,12,12],"right_children":[2,4,6,8,10,-1,12,14,16,18,20,22,24,-1,-1,-1,-1,-1,-1,-1,-1,-1,-1,-1,-1],"split_conditions":[2.6700823E1,3.31E1,3.75E1,1.4474677E8,3.51E1,-2.94197E-1,2E0,3.14E1,3.19E1,2.2372055E1,1.1141096E1,3.6525464E11,3.57E1,-2.0773388E-2,-1.7293458E-1,1.2150264E-1,3.0179858E-2,1.10077284E-1,-7.202711E-2,-2.663352E-1,1.6676914E-2,6.4053163E-3,-2.5666317E-1,1.640905E-1,9.184166E-3],"split_indices":[0,1,4,9,1,0,5,1,1,7,0,8,1,0,0,0,0,0,0,0,0,0,0,0,0],"split_type":[0,0,0,0,0,0,0,0,0,0,0,0,0,0,0,0,0,0,0,0,0,0,0,0,0],"sum_hessian":[1.95E2,1.61E2,3.4E1,3.2E1,1.29E2,3E0,3.1E1,2.5E1,7E0,3E1,9.9E1,1.1E1,2E1,1.3E1,1.2E1,4E0,3E0,2.8E1,2E0,3E0,9.6E1,4E0,7E0,3E0,1.7E1],"tree_param":{"num_deleted":"0","num_feature":"10","num_nodes":"25","size_leaf_vector":"1"}},{"base_weights":[-6.3219465E-2,-1.5651714E0,1.8278034E-1,1.8449795E-1,-5.5249896E0,1.214292E0,-1.9788449E-1,1.5832536E-1,-1.1066843E0,-3.2569727E-1,3.4942485E-2,1.9234493E-1,8.456427E-1,-1.2504491E0,3.0455723E-1,-1.0280438E-1,1.5299116E-1,-1.959672E-1,6.7579776E-2,-5.690349E-3,-2.2108331E-1,2.6415262E-1,-1.3491338E-3],"categories":[],"categories_nodes":[],"categories_segments":[],"categories_sizes":[],"default_left":[0,0,0,0,0,0,0,0,0,0,0,0,0,0,0,0,0,0,0,0,0,0,0],"id":59,"left_children":[1,3,5,7,9,11,13,-1,15,-1,-1,-1,17,19,21,-1,-1,-1,-1,-1,-1,-1,-1],"loss_changes":[6.827038E1,1.8115701E2,6.267327E1,7.666035E1,5.379306E1,3.8478775E1,6.2256557E1,0E0,6.1671005E1,0E0,0E0,0E0,9.9320854E1,1.3646925E2,1.3218813E2,0E0,0E0,0E0,0E0,0E0,0E0,0E0,0E0],"parents":[2147483647,0,0,1,1,2,2,3,3,4,4,5,5,6,6,8,8,12,12,13,13,14,14],"right_children":[2,4,6,8,10,12,14,-1,16,-1,-1,-1,18,20,22,-1,-1,-1,-1,-1,-1,-1,-1],"split_conditions":[1.2495891E1,-1.03E1,1.5903835E1,2.62E1,3.75E1,7.88357E11,1.0381E3,1.5832536E-1,-1.21E1,-3.2569727E-1,3.4942485E-2,1.9234493E-1,3.27E1,8.339E2,3.18627E11,-1.0280438E-1,1.5299116E-1,-1.959672E-1,6.7579776E-2,-5.690349E-3,-2.2108331E-1,2.6415262E-1,-1.3491338E-3],"split_indices":[0,2,0,4,1,8,3,0,2,0,0,0,1,3,8,0,0,0,0,0,0,0,0],"split_type":[0,0,0,0,0,0,0,0,0,0,0,0,0,0,0,0,0,0,0,0,0,0,0],"sum_hessian":[1.83E2,2.5E1,1.58E2,1.8E1,7E0,4.2E1,1.16E2,5E0,1.3E1,6E0,1E0,4E0,3.8E1,3.7E1,7.9E1,1.1E1,2E0,3E0,3.5E1,2.8E1,9E0,4E0,7.5E1],"tree_param":{"num_deleted":"0","num_feature":"10","num_nodes":"23","size_leaf_vector":"1"}},{"base_weights":[-1.8058401E-1,1.9180933E-2,-1.903281E0,-4.2081004E-1,9.6710664E-1,8.6484367E-1,-3.6732688E0,-3.0131048E-1,-3.809689E-1,2.6706648E0,6.8091893E-1,-2.1399792E-1,2.0429387E0,-2.9344568E-1,-9.528717E-1,5.275391E-4,-1.2035167E-1,6.630142E-2,1.6061206E-1,2.1014063E-2,5.488838E-2,1.5863596E-1,5.687793E-2,7.4986937E-3,-1.8924862E-1],"categories":[],"categories_nodes":[],"categories_segments":[],"categories_sizes":[],"default_left":[0,0,0,0,0,0,0,0,0,0,0,0,0,0,0,0,0,0,0,0,0,0,0,0,0],"id":60,"left_children":[1,3,5,7,9,11,